{"model_type": "xgboost", "opt_type": 0, "learner": {"attributes": {}, "feature_names": [], "feature_types": [], "gradient_booster": {"model": {"gbtree_model_param": {"num_parallel_tree": "1", "num_trees": "20"}, "iteration_indptr": [0, 1, 2, 3, 4, 5, 6, 7, 8, 9, 10, 11, 12, 13, 14, 15, 16, 17, 18, 19, 20], "tree_info": [0, 0, 0, 0, 0, 0, 0, 0, 0, 0, 0, 0, 0, 0, 0, 0, 0, 0, 0, 0], "trees": [{"base_weights": [2.1551962e-06, -35.52351, 51.44785, -52.829765, 10.741674, 37.05116, 112.99444, -71.40181, -43.39292, -15.884881, 26.283365, 21.806906, 74.52042, 39.07488, 64.01196, -56.952522, -26.160921, -7.253008, -49.402424, -40.396854, 7.90817, -28.78045, 35.786476, -27.487764, 28.654728, -22.552406, 84.64206, -3.8604815, 75.23053, -66.86708, 4.0107665, -17.541075, 12.952693, -54.664833, -2.3628876, -13.7741785, -20.87677, -12.047309, 21.537113, -9.776771, -1.4604813, 20.830248, 25.867748, 7.1975937, -41.394474, 14.356332, 55.59948, -9.147308, 0.18951875, 89.78801, -10.460482, 3.939519, 82.22582, -9.776771, -21.553297, -3.5473084, 5.552692, -1.1826932, -15.165723, -16.843483, 9.3395195, -15.547309, 4.944158, 1.5632302, -12.247309, -1.965722, 10.353461, -8.589396, 11.130086, 7.089519, -1.8473084, -15.403683, 4.239519, 9.326403, -2.733646, 24.205349, 4.217307, -3.2604814, 28.090105, 6.939519, 26.465866], "categories": [], "categories_nodes": [], "categories_segments": [], "categories_sizes": [], "default_left": [0, 0, 0, 0, 0, 0, 0, 0, 0, 0, 0, 0, 0, 0, 0, 0, 0, 0, 0, 0, 0, 0, 0, 0, 0, 0, 0, 0, 0, 0, 0, 0, 0, 0, 0, 0, 0, 0, 0, 0, 0, 0, 0, 0, 0, 0, 0, 0, 0, 0, 0, 0, 0, 0, 0, 0, 0, 0, 0, 0, 0, 0, 0, 0, 0, 0, 0, 0, 0, 0, 0, 0, 0, 0, 0, 0, 0, 0, 0, 0, 0], "id": 0, "left_children": [1, 3, 5, 7, 9, 11, 13, 15, 17, 19, 21, 23, 25, -1, 27, 29, -1, 31, 33, 35, 37, 39, 41, 43, 45, 47, 49, -1, 51, 53, 55, 57, -1, 59, 61, 63, -1, -1, 65, -1, -1, 67, -1, 69, 71, 73, 75, -1, -1, 77, -1, -1, 79, -1, -1, -1, -1, -1, -1, -1, -1, -1, -1, -1, -1, -1, -1, -1, -1, -1, -1, -1, -1, -1, -1, -1, -1, -1, -1, -1, -1], "loss_changes": [648800.9, 168709.69, 124293.125, 23716.688, 24419.168, 66346.64, 14482.875, 6449.4062, 22228.703, 13150.189, 20391.217, 29817.914, 35315.11, 0.0, 8730.457, 17796.484, 0.0, 9058.359, 21902.016, 7590.4355, 8725.924, 387.8042, 22344.129, 5603.8916, 28482.074, 755.4624, 22195.578, 0.0, 2395.4258, 1923.8828, 1366.7615, 6085.4937, 0.0, 11906.922, 10174.322, 3807.5496, 0.0, 0.0, 3870.5864, 0.0, 0.0, 21985.516, 0.0, 1023.4474, 5145.992, 20309.305, 25959.742, 0.0, 0.0, 12630.375, 0.0, 0.0, 438.6836, 0.0, 0.0, 0.0, 0.0, 0.0, 0.0, 0.0, 0.0, 0.0, 0.0, 0.0, 0.0, 0.0, 0.0, 0.0, 0.0, 0.0, 0.0, 0.0, 0.0, 0.0, 0.0, 0.0, 0.0, 0.0, 0.0, 0.0, 0.0], "parents": [2147483647, 0, 0, 1, 1, 2, 2, 3, 3, 4, 4, 5, 5, 6, 6, 7, 7, 8, 8, 9, 9, 10, 10, 11, 11, 12, 12, 14, 14, 15, 15, 17, 17, 18, 18, 19, 19, 20, 20, 21, 21, 22, 22, 23, 23, 24, 24, 25, 25, 26, 26, 28, 28, 29, 29, 30, 30, 31, 31, 33, 33, 34, 34, 35, 35, 38, 38, 41, 41, 43, 43, 44, 44, 45, 45, 46, 46, 49, 49, 52, 52], "right_children": [2, 4, 6, 8, 10, 12, 14, 16, 18, 20, 22, 24, 26, -1, 28, 30, -1, 32, 34, 36, 38, 40, 42, 44, 46, 48, 50, -1, 52, 54, 56, 58, -1, 60, 62, 64, -1, -1, 66, -1, -1, 68, -1, 70, 72, 74, 76, -1, -1, 78, -1, -1, 80, -1, -1, -1, -1, -1, -1, -1, -1, -1, -1, -1, -1, -1, -1, -1, -1, -1, -1, -1, -1, -1, -1, -1, -1, -1, -1, -1, -1], "split_conditions": [0.0056499788, 0.0062067355, 0.07355214, -0.042570855, -0.023450946, 0.036201265, 0.022485405, -0.038719688, -0.051103264, 0.02472964, -0.04354178, -0.03980883, -0.00061173533, 39.07488, 0.016318427, -0.04559945, -26.160921, -0.004221514, 0.045345243, -0.02991782, -0.03321323, 0.0002609183, 0.03799897, -0.026833475, 0.0379505, 0.019913213, 0.19878799, -3.8604815, 0.08540807, -0.07563562, -0.04183994, 0.0030644094, 12.952693, 0.10794366, -0.034521777, 0.009438663, -20.87677, -12.047309, -0.028674295, -9.776771, -1.4604813, 0.01482098, 25.867748, -0.04183994, 0.020446286, 0.034750905, 0.038075905, -9.147308, 0.18951875, -0.071772285, -10.460482, 3.939519, -0.06726771, -9.776771, -21.553297, -3.5473084, 5.552692, -1.1826932, -15.165723, -16.843483, 9.3395195, -15.547309, 4.944158, 1.5632302, -12.247309, -1.965722, 10.353461, -8.589396, 11.130086, 7.089519, -1.8473084, -15.403683, 4.239519, 9.326403, -2.733646, 24.205349, 4.217307, -3.2604814, 28.090105, 6.939519, 26.465866], "split_indices": [2, 8, 2, 8, 2, 9, 5, 4, 4, 8, 3, 8, 8, 0, 4, 4, 0, 8, 5, 2, 3, 2, 7, 6, 3, 0, 5, 0, 2, 9, 0, 9, 0, 3, 8, 4, 0, 0, 6, 0, 0, 8, 0, 0, 4, 2, 0, 0, 0, 5, 0, 0, 0, 0, 0, 0, 0, 0, 0, 0, 0, 0, 0, 0, 0, 0, 0, 0, 0, 0, 0, 0, 0, 0, 0, 0, 0, 0, 0, 0, 0], "split_type": [0, 0, 0, 0, 0, 0, 0, 0, 0, 0, 0, 0, 0, 0, 0, 0, 0, 0, 0, 0, 0, 0, 0, 0, 0, 0, 0, 0, 0, 0, 0, 0, 0, 0, 0, 0, 0, 0, 0, 0, 0, 0, 0, 0, 0, 0, 0, 0, 0, 0, 0, 0, 0, 0, 0, 0, 0, 0, 0, 0, 0, 0, 0, 0, 0, 0, 0, 0, 0, 0, 0, 0, 0, 0, 0, 0, 0, 0, 0, 0, 0], "sum_hessian": [353.0, 209.0, 144.0, 152.0, 57.0, 118.0, 26.0, 49.0, 103.0, 21.0, 36.0, 85.0, 33.0, 18.0, 8.0, 28.0, 21.0, 15.0, 88.0, 10.0, 11.0, 5.0, 31.0, 10.0, 75.0, 3.0, 30.0, 1.0, 7.0, 24.0, 4.0, 13.0, 2.0, 79.0, 9.0, 6.0, 4.0, 2.0, 9.0, 4.0, 1.0, 25.0, 6.0, 3.0, 7.0, 50.0, 25.0, 2.0, 1.0, 29.0, 1.0, 1.0, 6.0, 4.0, 20.0, 2.0, 2.0, 10.0, 3.0, 78.0, 1.0, 2.0, 7.0, 4.0, 2.0, 3.0, 6.0, 6.0, 19.0, 1.0, 2.0, 6.0, 1.0, 29.0, 21.0, 15.0, 10.0, 1.0, 28.0, 1.0, 5.0], "tree_param": {"num_deleted": "0", "num_feature": "10", "num_nodes": "81", "size_leaf_vector": "1"}}, {"base_weights": [0.033973694, -23.928804, 39.55442, -39.92107, 3.6668823, 28.630907, 81.78349, -45.921833, -19.072487, -0.1979466, 18.967451, 10.280193, 47.480137, 24.659119, 26.368975, -36.62225, -60.225487, -1.4896207, -37.661182, 23.232634, -8.137161, 33.818333, -5.9450235, -28.651901, 52.621094, 12.051253, -3.281408, -5.3892593, -45.36009, -63.17431, -1.8156382, -15.503915, 15.430917, -44.61493, 7.3433585, -3.5389023, 56.34661, 5.487673, -28.235365, 53.727676, -3.121504, 25.000788, -17.273375, -0.4412842, -11.166572, 20.886992, 59.07768, 5.6961465, -5.458666, -14.175051, 7.9385905, -7.547262, -19.693068, -10.78396, 9.966923, 10.955309, -7.894888, -14.670368, 1.6660401, 3.4066155, -0.102104194, 8.510123, -6.9113336, 4.736274, 22.19846, -7.007573, 4.790467, -4.967204, -18.15296, 19.900429, 0.7423542, -6.6570506, 7.8785605, -7.566439, 4.074084, 11.221738, -3.9727972, 24.584923, 14.716818], "categories": [], "categories_nodes": [], "categories_segments": [], "categories_sizes": [], "default_left": [0, 0, 0, 0, 0, 0, 0, 0, 0, 0, 0, 0, 0, 0, 0, 0, 0, 0, 0, 0, 0, 0, 0, 0, 0, 0, 0, 0, 0, 0, 0, 0, 0, 0, 0, 0, 0, 0, 0, 0, 0, 0, 0, 0, 0, 0, 0, 0, 0, 0, 0, 0, 0, 0, 0, 0, 0, 0, 0, 0, 0, 0, 0, 0, 0, 0, 0, 0, 0, 0, 0, 0, 0, 0, 0, 0, 0, 0, 0], "id": 1, "left_children": [1, 3, 5, 7, 9, 11, 13, 15, 17, 19, -1, 21, 23, 25, -1, 27, 29, 31, 33, 35, 37, 39, 41, 43, 45, -1, -1, 47, 49, 51, 53, 55, -1, 57, 59, 61, 63, 65, 67, 69, 71, -1, 73, -1, -1, 75, 77, -1, -1, -1, -1, -1, -1, -1, -1, -1, -1, -1, -1, -1, -1, -1, -1, -1, -1, -1, -1, -1, -1, -1, -1, -1, -1, -1, -1, -1, -1, -1, -1], "loss_changes": [336191.47, 97677.58, 59471.297, 16639.188, 18887.38, 36868.758, 7261.0938, 12160.359, 10729.702, 14698.639, 0.0, 21588.09, 22251.445, 2648.082, 0.0, 18313.352, 6947.1562, 14148.437, 5334.828, 17929.645, 16311.191, 17083.014, 35827.305, 877.0115, 9010.75, 0.0, 0.0, 5340.2256, 8445.039, 2009.5938, 4781.9624, 9398.17, 0.0, 3282.084, 96.34645, 8119.083, 5273.9688, 11256.677, 8043.7695, 9528.148, 5625.47, 0.0, 7944.5674, 0.0, 0.0, 6133.1597, 5377.6875, 0.0, 0.0, 0.0, 0.0, 0.0, 0.0, 0.0, 0.0, 0.0, 0.0, 0.0, 0.0, 0.0, 0.0, 0.0, 0.0, 0.0, 0.0, 0.0, 0.0, 0.0, 0.0, 0.0, 0.0, 0.0, 0.0, 0.0, 0.0, 0.0, 0.0, 0.0, 0.0], "parents": [2147483647, 0, 0, 1, 1, 2, 2, 3, 3, 4, 4, 5, 5, 6, 6, 7, 7, 8, 8, 9, 9, 11, 11, 12, 12, 13, 13, 15, 15, 16, 16, 17, 17, 18, 18, 19, 19, 20, 20, 21, 21, 22, 22, 23, 23, 24, 24, 27, 27, 28, 28, 29, 29, 30, 30, 31, 31, 33, 33, 34, 34, 35, 35, 36, 36, 37, 37, 38, 38, 39, 39, 40, 40, 42, 42, 45, 45, 46, 46], "right_children": [2, 4, 6, 8, 10, 12, 14, 16, 18, 20, -1, 22, 24, 26, -1, 28, 30, 32, 34, 36, 38, 40, 42, 44, 46, -1, -1, 48, 50, 52, 54, 56, -1, 58, 60, 62, 64, 66, 68, 70, 72, -1, 74, -1, -1, 76, 78, -1, -1, -1, -1, -1, -1, -1, -1, -1, -1, -1, -1, -1, -1, -1, -1, -1, -1, -1, -1, -1, -1, -1, -1, -1, -1, -1, -1, -1, -1, -1, -1], "split_conditions": [0.009961227, -0.0023983933, 0.07355214, 0.03081083, 0.1081111, 0.017293394, -0.052737556, 0.05068012, 0.019186998, -0.016704442, 18.967451, 0.030439656, -0.033245593, -0.060002632, 26.368975, 0.000778808, 0.03333708, 0.00806271, 0.019632837, -0.0018820165, 0.000778808, 0.05068012, -0.06917231, -0.020044709, 0.018583724, 12.051253, -3.281408, -0.045472477, 0.07351515, -0.07626374, 0.001750522, -0.0010776975, 15.430917, -0.0118968515, 0.045340985, 0.0020044427, -0.0010914305, -0.005696818, 0.0024165425, 0.008100982, -0.03603757, 25.000788, 0.05787118, -0.4412842, -11.166572, 0.045345243, -0.0010776975, 5.6961465, -5.458666, -14.175051, 7.9385905, -7.547262, -19.693068, -10.78396, 9.966923, 10.955309, -7.894888, -14.670368, 1.6660401, 3.4066155, -0.102104194, 8.510123, -6.9113336, 4.736274, 22.19846, -7.007573, 4.790467, -4.967204, -18.15296, 19.900429, 0.7423542, -6.6570506, 7.8785605, -7.566439, 4.074084, 11.221738, -3.9727972, 24.584923, 14.716818], "split_indices": [2, 8, 2, 0, 7, 3, 0, 1, 6, 4, 0, 2, 8, 0, 0, 6, 3, 4, 9, 0, 6, 1, 6, 0, 2, 0, 0, 0, 3, 2, 0, 9, 0, 8, 0, 8, 3, 4, 2, 3, 6, 0, 5, 0, 0, 5, 9, 0, 0, 0, 0, 0, 0, 0, 0, 0, 0, 0, 0, 0, 0, 0, 0, 0, 0, 0, 0, 0, 0, 0, 0, 0, 0, 0, 0, 0, 0, 0, 0], "split_type": [0, 0, 0, 0, 0, 0, 0, 0, 0, 0, 0, 0, 0, 0, 0, 0, 0, 0, 0, 0, 0, 0, 0, 0, 0, 0, 0, 0, 0, 0, 0, 0, 0, 0, 0, 0, 0, 0, 0, 0, 0, 0, 0, 0, 0, 0, 0, 0, 0, 0, 0, 0, 0, 0, 0, 0, 0, 0, 0, 0, 0, 0, 0, 0, 0, 0, 0, 0, 0, 0, 0, 0, 0, 0, 0, 0, 0, 0, 0], "sum_hessian": [353.0, 220.0, 133.0, 139.0, 81.0, 107.0, 26.0, 107.0, 32.0, 77.0, 4.0, 55.0, 52.0, 3.0, 23.0, 67.0, 40.0, 17.0, 15.0, 19.0, 58.0, 22.0, 33.0, 3.0, 49.0, 2.0, 1.0, 15.0, 52.0, 38.0, 2.0, 14.0, 3.0, 13.0, 2.0, 11.0, 8.0, 35.0, 23.0, 14.0, 8.0, 3.0, 30.0, 1.0, 2.0, 9.0, 40.0, 5.0, 10.0, 51.0, 1.0, 3.0, 35.0, 1.0, 1.0, 2.0, 12.0, 12.0, 1.0, 1.0, 1.0, 4.0, 7.0, 3.0, 5.0, 9.0, 26.0, 18.0, 5.0, 11.0, 3.0, 5.0, 3.0, 24.0, 6.0, 6.0, 3.0, 10.0, 30.0], "tree_param": {"num_deleted": "0", "num_feature": "10", "num_nodes": "79", "size_leaf_vector": "1"}}, {"base_weights": [0.3355135, -16.764194, 28.534767, -28.015911, 3.0290904, 20.766777, 58.54988, -20.481226, -37.01947, 0.06625921, 14.415262, 13.752587, 49.17068, 69.00372, 29.975122, -24.578133, 18.95109, -31.197767, -48.859314, 4.6321464, -30.9884, -7.290951, 19.267939, -1.6364434, 52.174698, 7.763922, 72.554794, 17.185724, 13.98841, -26.498161, 14.686886, -12.807343, 31.671791, -33.125416, -3.1580086, -2.0269318, -15.246902, -5.9807224, 20.006985, -38.44273, 5.415088, 15.1589775, -40.054474, 21.884672, -8.813796, 2.6609688, 53.98706, 74.66324, 5.822942, -2.7891977, 19.41892, -8.655214, 0.90362245, 8.180651, -3.4588442, -0.5151604, -5.248144, 0.12000046, 11.353846, 1.9822907, -10.276703, 2.8956232, -3.193619, -4.1186137, 6.9279294, 15.023245, 2.2796533, -13.03254, -4.1891985, -0.93069655, 12.403579, -15.19436, 5.114891, -4.6998706, 7.3552585, 3.0684817, 16.754961, 23.055847, 6.272942, -0.6067543, 7.2335134], "categories": [], "categories_nodes": [], "categories_segments": [], "categories_sizes": [], "default_left": [0, 0, 0, 0, 0, 0, 0, 0, 0, 0, 0, 0, 0, 0, 0, 0, 0, 0, 0, 0, 0, 0, 0, 0, 0, 0, 0, 0, 0, 0, 0, 0, 0, 0, 0, 0, 0, 0, 0, 0, 0, 0, 0, 0, 0, 0, 0, 0, 0, 0, 0, 0, 0, 0, 0, 0, 0, 0, 0, 0, 0, 0, 0, 0, 0, 0, 0, 0, 0, 0, 0, 0, 0, 0, 0, 0, 0, 0, 0, 0, 0], "id": 2, "left_children": [1, 3, 5, 7, 9, 11, 13, 15, 17, 19, -1, 21, 23, 25, 27, 29, 31, 33, 35, 37, 39, 41, 43, -1, 45, -1, 47, -1, 49, 51, 53, 55, 57, 59, 61, -1, -1, 63, 65, 67, -1, 69, 71, 73, -1, -1, 75, 77, -1, -1, 79, -1, -1, -1, -1, -1, -1, -1, -1, -1, -1, -1, -1, -1, -1, -1, -1, -1, -1, -1, -1, -1, -1, -1, -1, -1, -1, -1, -1, -1, -1], "loss_changes": [171176.83, 49303.418, 30027.156, 8807.094, 10801.563, 20840.664, 5996.9297, 13228.273, 2818.164, 11061.533, 0.0, 10353.982, 3730.6172, 1031.8906, 3128.127, 5817.254, 3637.5474, 2327.6758, 1227.4844, 11215.295, 4349.408, 14582.421, 9553.738, 0.0, 1090.8242, 0.0, 455.71094, 0.0, 1065.718, 4877.1836, 1633.8075, 125.88046, 1143.3608, 2112.5117, 486.40646, 0.0, 0.0, 9552.849, 10066.8, 494.7168, 0.0, 5866.6133, 5702.9375, 7008.125, 0.0, 0.0, 977.51953, 276.1797, 0.0, 0.0, 652.48706, 0.0, 0.0, 0.0, 0.0, 0.0, 0.0, 0.0, 0.0, 0.0, 0.0, 0.0, 0.0, 0.0, 0.0, 0.0, 0.0, 0.0, 0.0, 0.0, 0.0, 0.0, 0.0, 0.0, 0.0, 0.0, 0.0, 0.0, 0.0, 0.0, 0.0], "parents": [2147483647, 0, 0, 1, 1, 2, 2, 3, 3, 4, 4, 5, 5, 6, 6, 7, 7, 8, 8, 9, 9, 11, 11, 12, 12, 13, 13, 14, 14, 15, 15, 16, 16, 17, 17, 18, 18, 19, 19, 20, 20, 21, 21, 22, 22, 24, 24, 26, 26, 28, 28, 29, 29, 30, 30, 31, 31, 32, 32, 33, 33, 34, 34, 37, 37, 38, 38, 39, 39, 41, 41, 42, 42, 43, 43, 46, 46, 47, 47, 50, 50], "right_children": [2, 4, 6, 8, 10, 12, 14, 16, 18, 20, -1, 22, 24, 26, 28, 30, 32, 34, 36, 38, 40, 42, 44, -1, 46, -1, 48, -1, 50, 52, 54, 56, 58, 60, 62, -1, -1, 64, 66, 68, -1, 70, 72, 74, -1, -1, 76, 78, -1, -1, 80, -1, -1, -1, -1, -1, -1, -1, -1, -1, -1, -1, -1, -1, -1, -1, -1, -1, -1, -1, -1, -1, -1, -1, -1, -1, -1, -1, -1, -1, -1], "split_conditions": [0.009961227, -0.00061173533, 0.07355214, 0.022868635, 0.1081111, 0.06389027, 0.022485405, 0.013566522, 0.05068012, 0.0754844, 14.415262, -0.03665608, -0.022208253, -0.014959694, -0.022884678, -0.00081689376, -0.057313185, 0.025315236, -0.10436553, 0.022687744, 0.11951489, 0.05307371, 0.10296456, -1.6364434, -0.06419889, 7.763922, 0.068985894, 17.185724, -0.017135115, 0.043665633, 0.016280675, -0.030942325, -0.0382074, -0.08237869, 0.029894229, -2.0269318, -15.246902, 0.04448548, 0.028658465, 0.019632837, 5.415088, 0.017036071, 0.054845106, -0.04987245, -8.813796, 2.6609688, -0.04183994, 0.063503675, 5.822942, -2.7891977, 0.08540807, -8.655214, 0.90362245, 8.180651, -3.4588442, -0.5151604, -5.248144, 0.12000046, 11.353846, 1.9822907, -10.276703, 2.8956232, -3.193619, -4.1186137, 6.9279294, 15.023245, 2.2796533, -13.03254, -4.1891985, -0.93069655, 12.403579, -15.19436, 5.114891, -4.6998706, 7.3552585, 3.0684817, 16.754961, 23.055847, 6.272942, -0.6067543, 7.2335134], "split_indices": [2, 8, 2, 6, 7, 8, 5, 4, 1, 4, 0, 3, 4, 8, 3, 2, 3, 3, 8, 8, 4, 2, 5, 0, 3, 0, 8, 0, 3, 3, 0, 0, 0, 8, 3, 0, 0, 9, 8, 9, 0, 8, 4, 8, 0, 0, 0, 0, 0, 0, 2, 0, 0, 0, 0, 0, 0, 0, 0, 0, 0, 0, 0, 0, 0, 0, 0, 0, 0, 0, 0, 0, 0, 0, 0, 0, 0, 0, 0, 0, 0], "split_type": [0, 0, 0, 0, 0, 0, 0, 0, 0, 0, 0, 0, 0, 0, 0, 0, 0, 0, 0, 0, 0, 0, 0, 0, 0, 0, 0, 0, 0, 0, 0, 0, 0, 0, 0, 0, 0, 0, 0, 0, 0, 0, 0, 0, 0, 0, 0, 0, 0, 0, 0, 0, 0, 0, 0, 0, 0, 0, 0, 0, 0, 0, 0, 0, 0, 0, 0, 0, 0, 0, 0, 0, 0, 0, 0, 0, 0, 0, 0, 0, 0], "sum_hessian": [353.0, 220.0, 133.0, 140.0, 80.0, 107.0, 26.0, 78.0, 62.0, 76.0, 4.0, 87.0, 20.0, 18.0, 8.0, 71.0, 7.0, 44.0, 18.0, 67.0, 9.0, 18.0, 69.0, 1.0, 19.0, 2.0, 16.0, 2.0, 6.0, 68.0, 3.0, 2.0, 5.0, 41.0, 3.0, 1.0, 17.0, 40.0, 27.0, 8.0, 1.0, 11.0, 7.0, 66.0, 3.0, 1.0, 18.0, 15.0, 1.0, 1.0, 5.0, 63.0, 5.0, 2.0, 1.0, 1.0, 1.0, 1.0, 4.0, 1.0, 40.0, 1.0, 2.0, 32.0, 8.0, 7.0, 20.0, 6.0, 2.0, 7.0, 4.0, 6.0, 1.0, 4.0, 62.0, 1.0, 17.0, 14.0, 1.0, 1.0, 4.0], "tree_param": {"num_deleted": "0", "num_feature": "10", "num_nodes": "81", "size_leaf_vector": "1"}}, {"base_weights": [0.4595974, -12.580122, 19.34154, -17.579638, 10.5118885, 10.187832, 36.013317, -21.798517, -4.7152295, -17.096378, 19.669502, 6.9859257, 56.51846, -12.686434, 40.4279, -22.721088, 14.581952, -19.39134, 5.2434826, 3.1979508, -21.364828, 26.335205, -10.271564, 16.736275, 5.2428474, 7.081946, 20.121847, 4.508354, -7.01159, 42.49234, -8.180452, 21.0263, -23.575584, 6.6219087, -23.128834, 18.758297, -13.213227, -7.915491, -8.031075, 17.32958, 17.160929, -18.462976, 4.602825, -6.7314873, 13.277436, 59.17178, 35.55961, 1.3346856, 8.127151, -4.2812457, -8.552347, -3.9111836, -8.6667595, -1.7779552, 10.248552, 5.4232655, -6.383742, -2.8017588, -0.54665685, 2.8274953, 13.72454, 0.91444474, -7.380839, 4.6938267, -5.1610394, 1.2522353, 9.692854, 3.0276034, 20.39356, 11.260603, -4.7423196], "categories": [], "categories_nodes": [], "categories_segments": [], "categories_sizes": [], "default_left": [0, 0, 0, 0, 0, 0, 0, 0, 0, 0, 0, 0, 0, 0, 0, 0, 0, 0, 0, 0, 0, 0, 0, 0, 0, 0, 0, 0, 0, 0, 0, 0, 0, 0, 0, 0, 0, 0, 0, 0, 0, 0, 0, 0, 0, 0, 0, 0, 0, 0, 0, 0, 0, 0, 0, 0, 0, 0, 0, 0, 0, 0, 0, 0, 0, 0, 0, 0, 0, 0, 0], "id": 3, "left_children": [1, 3, 5, 7, 9, 11, 13, 15, 17, 19, 21, 23, 25, 27, 29, 31, -1, 33, 35, -1, 37, 39, 41, -1, 43, -1, -1, -1, -1, 45, -1, 47, 49, -1, 51, 53, 55, 57, -1, -1, 59, 61, -1, 63, 65, 67, 69, -1, -1, -1, -1, -1, -1, -1, -1, -1, -1, -1, -1, -1, -1, -1, -1, -1, -1, -1, -1, -1, -1, -1, -1], "loss_changes": [87403.51, 24429.055, 21761.348, 9286.516, 9943.659, 13698.068, 11477.328, 9548.355, 6532.5054, 1412.5056, 6058.2725, 7363.372, 500.83594, 1831.9395, 7727.1484, 5317.9844, 0.0, 3300.0342, 6982.711, 0.0, 442.39453, 5929.047, 1542.1775, 0.0, 8555.755, 0.0, 0.0, 0.0, 0.0, 3215.0469, 0.0, 181.06067, 5421.617, 0.0, 611.5908, 6286.1973, 3413.3381, 17.682465, 0.0, 0.0, 3991.853, 735.365, 0.0, 8705.314, 9047.655, 4500.758, 4145.4414, 0.0, 0.0, 0.0, 0.0, 0.0, 0.0, 0.0, 0.0, 0.0, 0.0, 0.0, 0.0, 0.0, 0.0, 0.0, 0.0, 0.0, 0.0, 0.0, 0.0, 0.0, 0.0, 0.0, 0.0], "parents": [2147483647, 0, 0, 1, 1, 2, 2, 3, 3, 4, 4, 5, 5, 6, 6, 7, 7, 8, 8, 9, 9, 10, 10, 11, 11, 12, 12, 13, 13, 14, 14, 15, 15, 17, 17, 18, 18, 20, 20, 21, 21, 22, 22, 24, 24, 29, 29, 31, 31, 32, 32, 34, 34, 35, 35, 36, 36, 37, 37, 40, 40, 41, 41, 43, 43, 44, 44, 45, 45, 46, 46], "right_children": [2, 4, 6, 8, 10, 12, 14, 16, 18, 20, 22, 24, 26, 28, 30, 32, -1, 34, 36, -1, 38, 40, 42, -1, 44, -1, -1, -1, -1, 46, -1, 48, 50, -1, 52, 54, 56, 58, -1, -1, 60, 62, -1, 64, 66, 68, 70, -1, -1, -1, -1, -1, -1, -1, -1, -1, -1, -1, -1, -1, -1, -1, -1, -1, -1, -1, -1, -1, -1, -1, -1], "split_conditions": [0.0056499788, 0.022687744, 0.036201265, 0.03081083, -0.03207709, 0.12313149, -0.00061173533, 0.09833287, -0.0125561245, -0.0854304, 0.06883138, -0.08179786, -0.03137613, -0.023677247, 0.19878799, -0.103593096, 14.581952, -0.06899065, 0.048973523, 3.1979508, -0.0382074, 0.02736405, 0.038075905, 16.736275, -0.0022275713, 7.081946, 20.121847, 4.508354, -7.01159, 0.031192603, -8.180452, -0.07626374, -0.038719688, 6.6219087, -0.0029028298, -0.02479543, -0.0045342813, -0.045472477, -8.031075, 17.32958, 0.06713621, 0.05068012, 4.602825, -0.023584206, 0.04768465, -0.052737556, 0.07803383, 1.3346856, 8.127151, -4.2812457, -8.552347, -3.9111836, -8.6667595, -1.7779552, 10.248552, 5.4232655, -6.383742, -2.8017588, -0.54665685, 2.8274953, 13.72454, 0.91444474, -7.380839, 4.6938267, -5.1610394, 1.2522353, 9.692854, 3.0276034, 20.39356, 11.260603, -4.7423196], "split_indices": [2, 8, 9, 0, 3, 2, 8, 9, 3, 0, 5, 0, 5, 0, 5, 0, 0, 4, 0, 0, 0, 8, 0, 0, 3, 0, 0, 0, 0, 8, 0, 2, 4, 0, 6, 8, 3, 0, 0, 0, 0, 1, 0, 4, 2, 0, 0, 0, 0, 0, 0, 0, 0, 0, 0, 0, 0, 0, 0, 0, 0, 0, 0, 0, 0, 0, 0, 0, 0, 0, 0], "split_type": [0, 0, 0, 0, 0, 0, 0, 0, 0, 0, 0, 0, 0, 0, 0, 0, 0, 0, 0, 0, 0, 0, 0, 0, 0, 0, 0, 0, 0, 0, 0, 0, 0, 0, 0, 0, 0, 0, 0, 0, 0, 0, 0, 0, 0, 0, 0, 0, 0, 0, 0, 0, 0, 0, 0, 0, 0, 0, 0, 0, 0, 0, 0, 0, 0, 0, 0, 0, 0, 0, 0], "sum_hessian": [353.0, 209.0, 144.0, 172.0, 37.0, 94.0, 50.0, 129.0, 43.0, 9.0, 28.0, 89.0, 5.0, 4.0, 46.0, 128.0, 1.0, 17.0, 26.0, 1.0, 8.0, 23.0, 5.0, 2.0, 87.0, 2.0, 3.0, 1.0, 3.0, 45.0, 1.0, 2.0, 126.0, 1.0, 16.0, 15.0, 11.0, 3.0, 5.0, 4.0, 19.0, 4.0, 1.0, 35.0, 52.0, 11.0, 34.0, 1.0, 1.0, 45.0, 81.0, 7.0, 9.0, 6.0, 9.0, 2.0, 9.0, 2.0, 1.0, 16.0, 3.0, 1.0, 3.0, 11.0, 24.0, 36.0, 16.0, 2.0, 9.0, 33.0, 1.0], "tree_param": {"num_deleted": "0", "num_feature": "10", "num_nodes": "71", "size_leaf_vector": "1"}}, {"base_weights": [0.63322836, -10.577698, 12.423721, -18.514122, -3.2751286, 6.4263253, 31.575672, -30.269192, -11.46633, 39.61196, -5.0845184, -0.90190125, 14.341162, 39.01067, 14.450274, -5.1598067, -33.671967, -2.7090657, -22.216974, 3.6836483, 13.38902, 12.357929, -10.343536, -4.4933214, 38.155468, 37.32078, 8.320465, 41.604023, 3.5313618, 2.059699, 30.62776, -4.1021776, 1.5222741, -10.426017, -38.272133, 8.601948, -17.866222, 4.8750887, -27.609514, 31.556429, -0.8666736, 7.383643, -18.815144, 0.9327919, -21.169094, 14.928534, -2.9814103, 4.076584, 42.994583, -2.706449, 24.727169, 3.7160137, 44.606525, -0.68385315, 2.2729661, -6.7041955, 14.690617, 2.3851228, 11.99365, 2.2279298, -6.362655, -11.841411, -1.7833455, 6.4198446, -2.3985758, 2.6905227, -8.849075, -3.5901148, 6.027659, -8.835483, 1.3848519, 2.1369743, 18.095129, -2.3825724, 5.642067, -8.262312, 3.543144, -8.350304, 1.0451984, 3.797641, -2.3984904, -9.388375, 2.20977, 4.254609, -2.4201462, 14.154067, 4.831844, 0.7244484, -9.253294, -1.7519323, 11.20298, -3.0800676, 4.7522736, 14.081927, 3.7881958, 2.627314, -3.4644363, 5.0827975, 1.1901741], "categories": [], "categories_nodes": [], "categories_segments": [], "categories_sizes": [], "default_left": [0, 0, 0, 0, 0, 0, 0, 0, 0, 0, 0, 0, 0, 0, 0, 0, 0, 0, 0, 0, 0, 0, 0, 0, 0, 0, 0, 0, 0, 0, 0, 0, 0, 0, 0, 0, 0, 0, 0, 0, 0, 0, 0, 0, 0, 0, 0, 0, 0, 0, 0, 0, 0, 0, 0, 0, 0, 0, 0, 0, 0, 0, 0, 0, 0, 0, 0, 0, 0, 0, 0, 0, 0, 0, 0, 0, 0, 0, 0, 0, 0, 0, 0, 0, 0, 0, 0, 0, 0, 0, 0, 0, 0, 0, 0, 0, 0, 0, 0], "id": 4, "left_children": [1, 3, 5, 7, 9, 11, 13, 15, 17, 19, 21, 23, 25, 27, 29, 31, 33, 35, 37, -1, -1, 39, 41, 43, 45, 47, 49, 51, 53, 55, 57, -1, -1, 59, 61, 63, 65, 67, 69, 71, 73, 75, 77, 79, 81, -1, -1, 83, 85, 87, 89, 91, 93, -1, -1, 95, 97, -1, -1, -1, -1, -1, -1, -1, -1, -1, -1, -1, -1, -1, -1, -1, -1, -1, -1, -1, -1, -1, -1, -1, -1, -1, -1, -1, -1, -1, -1, -1, -1, -1, -1, -1, -1, -1, -1, -1, -1, -1, -1], "loss_changes": [46923.97, 10487.408, 19668.182, 6860.6367, 7650.9565, 7727.1616, 4656.707, 2560.3906, 5212.002, 0.63720703, 8658.729, 9990.445, 8544.086, 2429.371, 2743.1929, 505.05457, 2595.1562, 5639.854, 3786.9746, 0.0, 0.0, 5612.9854, 10951.719, 5901.247, 3843.662, 2276.8027, 9474.52, 2791.9688, 87.78911, 1094.753, 954.4971, 0.0, 0.0, 1312.5059, 657.03906, 4206.7554, 4634.016, 1521.8873, 1382.5693, 5894.7773, 2098.0935, 4035.8135, 9951.873, 5335.5576, 4853.405, 0.0, 0.0, 482.56232, 478.10547, 4685.7407, 8316.421, 671.26086, 1198.0352, 0.0, 0.0, 550.51306, 29.382141, 0.0, 0.0, 0.0, 0.0, 0.0, 0.0, 0.0, 0.0, 0.0, 0.0, 0.0, 0.0, 0.0, 0.0, 0.0, 0.0, 0.0, 0.0, 0.0, 0.0, 0.0, 0.0, 0.0, 0.0, 0.0, 0.0, 0.0, 0.0, 0.0, 0.0, 0.0, 0.0, 0.0, 0.0, 0.0, 0.0, 0.0, 0.0, 0.0, 0.0, 0.0, 0.0], "parents": [2147483647, 0, 0, 1, 1, 2, 2, 3, 3, 4, 4, 5, 5, 6, 6, 7, 7, 8, 8, 9, 9, 10, 10, 11, 11, 12, 12, 13, 13, 14, 14, 15, 15, 16, 16, 17, 17, 18, 18, 21, 21, 22, 22, 23, 23, 24, 24, 25, 25, 26, 26, 27, 27, 28, 28, 29, 29, 30, 30, 33, 33, 34, 34, 35, 35, 36, 36, 37, 37, 38, 38, 39, 39, 40, 40, 41, 41, 42, 42, 43, 43, 44, 44, 47, 47, 48, 48, 49, 49, 50, 50, 51, 51, 52, 52, 55, 55, 56, 56], "right_children": [2, 4, 6, 8, 10, 12, 14, 16, 18, 20, 22, 24, 26, 28, 30, 32, 34, 36, 38, -1, -1, 40, 42, 44, 46, 48, 50, 52, 54, 56, 58, -1, -1, 60, 62, 64, 66, 68, 70, 72, 74, 76, 78, 80, 82, -1, -1, 84, 86, 88, 90, 92, 94, -1, -1, 96, 98, -1, -1, -1, -1, -1, -1, -1, -1, -1, -1, -1, -1, -1, -1, -1, -1, -1, -1, -1, -1, -1, -1, -1, -1, -1, -1, -1, -1, -1, -1, -1, -1, -1, -1, -1, -1, -1, -1, -1, -1, -1, -1], "split_conditions": [0.00027247815, -0.033245593, 0.056307144, -0.03665608, -0.08179786, 0.017293394, 0.022485405, -0.075185925, 0.05068012, -0.09632801, -0.021311019, 0.08590655, -0.009361912, 0.07076875, 0.05276969, -0.07949717, -0.026833475, -0.012779632, -0.021311019, 3.6836483, 13.38902, -0.018113693, -0.023646863, -0.0010914305, 0.049840275, -0.0018820165, 0.04034337, -0.071772285, 0.07440129, 0.07101867, -0.034574863, -4.1021776, 1.5222741, 0.05068012, 0.009438663, 0.03391355, -0.045007188, 0.038075905, 0.03205916, -0.022516528, 0.045340985, -0.07090025, 0.03081083, 0.05068012, 0.06389027, 14.928534, -2.9814103, -0.056370094, 0.07496572, 0.03023191, -0.0072837663, 0.05068012, 0.12902124, -0.68385315, 2.2729661, 0.060618393, 0.10480869, 2.3851228, 11.99365, 2.2279298, -6.362655, -11.841411, -1.7833455, 6.4198446, -2.3985758, 2.6905227, -8.849075, -3.5901148, 6.027659, -8.835483, 1.3848519, 2.1369743, 18.095129, -2.3825724, 5.642067, -8.262312, 3.543144, -8.350304, 1.0451984, 3.797641, -2.3984904, -9.388375, 2.20977, 4.254609, -2.4201462, 14.154067, 4.831844, 0.7244484, -9.253294, -1.7519323, 11.20298, -3.0800676, 4.7522736, 14.081927, 3.7881958, 2.627314, -3.4644363, 5.0827975, 1.1901741], "split_indices": [8, 8, 2, 3, 0, 3, 5, 2, 1, 0, 6, 9, 9, 0, 9, 2, 6, 0, 6, 0, 0, 8, 8, 3, 2, 0, 9, 5, 0, 8, 0, 0, 0, 1, 4, 6, 2, 0, 9, 8, 0, 0, 0, 1, 8, 0, 0, 0, 8, 6, 2, 1, 8, 0, 0, 2, 2, 0, 0, 0, 0, 0, 0, 0, 0, 0, 0, 0, 0, 0, 0, 0, 0, 0, 0, 0, 0, 0, 0, 0, 0, 0, 0, 0, 0, 0, 0, 0, 0, 0, 0, 0, 0, 0, 0, 0, 0, 0, 0], "split_type": [0, 0, 0, 0, 0, 0, 0, 0, 0, 0, 0, 0, 0, 0, 0, 0, 0, 0, 0, 0, 0, 0, 0, 0, 0, 0, 0, 0, 0, 0, 0, 0, 0, 0, 0, 0, 0, 0, 0, 0, 0, 0, 0, 0, 0, 0, 0, 0, 0, 0, 0, 0, 0, 0, 0, 0, 0, 0, 0, 0, 0, 0, 0, 0, 0, 0, 0, 0, 0, 0, 0, 0, 0, 0, 0, 0, 0, 0, 0, 0, 0, 0, 0, 0, 0, 0, 0, 0, 0, 0, 0, 0, 0, 0, 0, 0, 0, 0, 0], "sum_hessian": [353.0, 181.0, 172.0, 86.0, 95.0, 132.0, 40.0, 31.0, 55.0, 3.0, 92.0, 69.0, 63.0, 27.0, 13.0, 4.0, 27.0, 31.0, 24.0, 1.0, 2.0, 21.0, 71.0, 64.0, 5.0, 12.0, 51.0, 25.0, 2.0, 8.0, 5.0, 2.0, 2.0, 5.0, 22.0, 18.0, 13.0, 4.0, 20.0, 8.0, 13.0, 23.0, 48.0, 49.0, 15.0, 4.0, 1.0, 2.0, 10.0, 31.0, 20.0, 2.0, 23.0, 1.0, 1.0, 5.0, 3.0, 2.0, 3.0, 2.0, 3.0, 21.0, 1.0, 10.0, 8.0, 4.0, 9.0, 2.0, 2.0, 19.0, 1.0, 5.0, 3.0, 10.0, 3.0, 2.0, 21.0, 34.0, 14.0, 21.0, 28.0, 11.0, 4.0, 1.0, 1.0, 8.0, 2.0, 27.0, 4.0, 6.0, 14.0, 1.0, 1.0, 21.0, 2.0, 1.0, 4.0, 2.0, 1.0], "tree_param": {"num_deleted": "0", "num_feature": "10", "num_nodes": "99", "size_leaf_vector": "1"}}, {"base_weights": [0.6407364, -5.9969115, 11.58312, 4.963652, -10.30206, 7.50524, 22.475538, -17.467093, 7.1984935, -11.150843, 7.6127977, 25.421078, 2.3558338, -1.7029594, 24.2985, -24.305466, 2.5087166, 9.806707, -17.040476, -16.607601, -5.3366685, 28.391964, -5.5451283, 11.563461, -5.021957, 11.374098, 27.837772, -0.77865946, -8.725221, -2.310093, 13.80242, 10.15538, -10.196724, -8.297805, -26.533522, -1.194986, -23.888884, -2.0433824, 32.456055, -13.95791, 19.64231, -12.095499, 12.776143, 14.74333, -0.2788086, 39.677742, 21.387377, 4.6203365, -5.255593, 0.32821512, 6.415104, -5.970232, -0.16272126, -8.412052, -0.18409273, -4.2165565, 2.392192, -8.208351, 3.1876237, 0.5311501, 10.218735, -5.7751718, 4.257509, 7.183524, -6.8284698, -0.45079353, -6.4061236, 14.682891, 0.52529883, 5.9206047, 1.8196439, 0.56135106, -0.6868149, 0.0014053346, 13.603396, 1.6193757, 11.566102], "categories": [], "categories_nodes": [], "categories_segments": [], "categories_sizes": [], "default_left": [0, 0, 0, 0, 0, 0, 0, 0, 0, 0, 0, 0, 0, 0, 0, 0, 0, 0, 0, 0, 0, 0, 0, 0, 0, 0, 0, 0, 0, 0, 0, 0, 0, 0, 0, 0, 0, 0, 0, 0, 0, 0, 0, 0, 0, 0, 0, 0, 0, 0, 0, 0, 0, 0, 0, 0, 0, 0, 0, 0, 0, 0, 0, 0, 0, 0, 0, 0, 0, 0, 0, 0, 0, 0, 0, 0, 0], "id": 5, "left_children": [1, 3, 5, 7, 9, 11, 13, 15, 17, 19, -1, 21, 23, -1, 25, 27, -1, 29, 31, 33, 35, 37, -1, 39, 41, 43, 45, -1, -1, 47, 49, -1, -1, 51, 53, 55, 57, -1, 59, 61, 63, 65, 67, 69, 71, 73, 75, -1, -1, -1, -1, -1, -1, -1, -1, -1, -1, -1, -1, -1, -1, -1, -1, -1, -1, -1, -1, -1, -1, -1, -1, -1, -1, -1, -1, -1, -1], "loss_changes": [25781.082, 10479.431, 5783.326, 3283.8735, 5097.9473, 9073.449, 1985.4551, 1263.0416, 3833.895, 4860.711, 0.0, 3394.3877, 5356.7627, 0.0, 1238.6328, 443.22705, 0.0, 2597.8936, 6325.8364, 6378.42, 5887.9316, 3225.5195, 0.0, 7490.5796, 5693.9404, 357.46265, 1137.082, 0.0, 0.0, 4040.873, 3830.4233, 0.0, 0.0, 4038.561, 1388.6719, 7658.614, 1968.5327, 0.0, 876.25977, 1614.0757, 5471.292, 3106.1924, 5097.9805, 183.53552, 17.251902, 1798.377, 5007.006, 0.0, 0.0, 0.0, 0.0, 0.0, 0.0, 0.0, 0.0, 0.0, 0.0, 0.0, 0.0, 0.0, 0.0, 0.0, 0.0, 0.0, 0.0, 0.0, 0.0, 0.0, 0.0, 0.0, 0.0, 0.0, 0.0, 0.0, 0.0, 0.0, 0.0], "parents": [2147483647, 0, 0, 1, 1, 2, 2, 3, 3, 4, 4, 5, 5, 6, 6, 7, 7, 8, 8, 9, 9, 11, 11, 12, 12, 14, 14, 15, 15, 17, 17, 18, 18, 19, 19, 20, 20, 21, 21, 23, 23, 24, 24, 25, 25, 26, 26, 29, 29, 30, 30, 33, 33, 34, 34, 35, 35, 36, 36, 38, 38, 39, 39, 40, 40, 41, 41, 42, 42, 43, 43, 44, 44, 45, 45, 46, 46], "right_children": [2, 4, 6, 8, 10, 12, 14, 16, 18, 20, -1, 22, 24, -1, 26, 28, -1, 30, 32, 34, 36, 38, -1, 40, 42, 44, 46, -1, -1, 48, 50, -1, -1, 52, 54, 56, 58, -1, 60, 62, 64, 66, 68, 70, 72, 74, 76, -1, -1, -1, -1, -1, -1, -1, -1, -1, -1, -1, -1, -1, -1, -1, -1, -1, -1, -1, -1, -1, -1, -1, -1, -1, -1, -1, -1, -1, -1], "split_conditions": [0.009961227, -0.017629381, 0.059743747, -0.042570855, 0.10794366, -0.05076412, -0.033245593, 0.027178291, 0.08176444, 0.0053830603, 7.6127977, 0.093371786, 0.03151747, -1.7029594, -0.03603757, -0.042405643, 2.5087166, -0.034574863, -0.017135115, -0.0382074, -0.0018947058, -0.0382074, -5.5451283, -0.03235593, 0.07031871, 0.08590655, -0.012576583, -0.77865946, -8.725221, -0.052737556, -0.011419984, 10.15538, -10.196724, -0.054707497, 0.03782968, -0.0125561245, 0.091995835, -2.0433824, -0.053870335, 0.035581768, 0.055164754, -0.013947743, -0.027712064, -0.021981675, -0.04183994, 0.03151747, 0.019070333, 4.6203365, -5.255593, 0.32821512, 6.415104, -5.970232, -0.16272126, -8.412052, -0.18409273, -4.2165565, 2.392192, -8.208351, 3.1876237, 0.5311501, 10.218735, -5.7751718, 4.257509, 7.183524, -6.8284698, -0.45079353, -6.4061236, 14.682891, 0.52529883, 5.9206047, 1.8196439, 0.56135106, -0.6868149, 0.0014053346, 13.603396, 1.6193757, 11.566102], "split_indices": [2, 6, 3, 8, 3, 6, 8, 0, 9, 0, 0, 4, 2, 0, 6, 3, 0, 0, 3, 0, 2, 0, 0, 6, 2, 9, 4, 0, 0, 0, 3, 0, 0, 2, 5, 3, 4, 0, 3, 4, 3, 6, 4, 5, 0, 2, 4, 0, 0, 0, 0, 0, 0, 0, 0, 0, 0, 0, 0, 0, 0, 0, 0, 0, 0, 0, 0, 0, 0, 0, 0, 0, 0, 0, 0, 0, 0], "split_type": [0, 0, 0, 0, 0, 0, 0, 0, 0, 0, 0, 0, 0, 0, 0, 0, 0, 0, 0, 0, 0, 0, 0, 0, 0, 0, 0, 0, 0, 0, 0, 0, 0, 0, 0, 0, 0, 0, 0, 0, 0, 0, 0, 0, 0, 0, 0, 0, 0, 0, 0, 0, 0, 0, 0, 0, 0, 0, 0, 0, 0, 0, 0, 0, 0, 0, 0, 0, 0, 0, 0, 0, 0, 0, 0, 0, 0], "sum_hessian": [353.0, 220.0, 133.0, 62.0, 158.0, 98.0, 35.0, 5.0, 57.0, 155.0, 3.0, 21.0, 77.0, 2.0, 33.0, 4.0, 1.0, 52.0, 5.0, 79.0, 76.0, 20.0, 1.0, 34.0, 43.0, 8.0, 25.0, 1.0, 3.0, 13.0, 39.0, 1.0, 4.0, 44.0, 35.0, 63.0, 13.0, 2.0, 18.0, 8.0, 26.0, 31.0, 12.0, 6.0, 2.0, 7.0, 18.0, 6.0, 7.0, 15.0, 24.0, 17.0, 27.0, 33.0, 2.0, 26.0, 37.0, 12.0, 1.0, 1.0, 17.0, 7.0, 1.0, 24.0, 2.0, 15.0, 16.0, 2.0, 10.0, 3.0, 3.0, 1.0, 1.0, 1.0, 6.0, 10.0, 8.0], "tree_param": {"num_deleted": "0", "num_feature": "10", "num_nodes": "77", "size_leaf_vector": "1"}}, {"base_weights": [0.52807057, -6.278452, 6.238581, 3.3815598, -8.590222, 1.1422291, 12.434801, -8.528295, 11.979265, -5.302736, -14.755136, 20.649155, -1.5391631, 27.110104, 9.0009165, -13.8800535, 3.8808823, -9.482512, 20.321508, -14.841157, -1.8460217, -8.10663, -20.762114, -2.0408707, 26.258883, 2.8365035, -18.089739, 39.753887, 5.174687, -1.311238, 15.592998, -0.8383045, -5.8048854, 7.413025, -1.5371534, -6.0187716, 2.335521, 32.936737, 3.001032, -0.6806157, -18.73683, 7.662035, -10.740486, -20.358711, 2.884103, -26.64466, -6.4017515, -5.2568383, 33.84647, -8.794809, 7.4374557, -10.622323, -30.44032, 2.4639497, 42.345837, 5.226496, -8.365952, 9.204167, -3.5495362, -6.9427195, 17.98855, -0.99637073, 0.9915734, 2.6642244, 0.4514786, 12.197916, 1.9535576, 5.548801, -3.973259, -5.1067553, 3.5237894, 1.0670403, -6.077233, -2.2075741, 4.7641153, -5.9747076, 0.24790508, -0.8001168, -7.1981554, 3.1283288, -7.7212048, -3.4269326, -8.783588, 1.7174996, -3.4194505, 2.1848373, -4.550415, 13.657257, 2.3604825, -0.29918733, -7.6083922, 3.4138443, -2.8095427, -5.3414993, 0.576622, -10.798891, -3.3100717, 13.493863, 3.19143, -4.1774735, -0.5613983, -3.688803, 1.1336458, 8.703883, 3.9422302], "categories": [], "categories_nodes": [], "categories_segments": [], "categories_sizes": [], "default_left": [0, 0, 0, 0, 0, 0, 0, 0, 0, 0, 0, 0, 0, 0, 0, 0, 0, 0, 0, 0, 0, 0, 0, 0, 0, 0, 0, 0, 0, 0, 0, 0, 0, 0, 0, 0, 0, 0, 0, 0, 0, 0, 0, 0, 0, 0, 0, 0, 0, 0, 0, 0, 0, 0, 0, 0, 0, 0, 0, 0, 0, 0, 0, 0, 0, 0, 0, 0, 0, 0, 0, 0, 0, 0, 0, 0, 0, 0, 0, 0, 0, 0, 0, 0, 0, 0, 0, 0, 0, 0, 0, 0, 0, 0, 0, 0, 0, 0, 0, 0, 0, 0, 0, 0, 0], "id": 6, "left_children": [1, 3, 5, 7, 9, 11, 13, 15, 17, 19, 21, 23, 25, 27, 29, 31, 33, 35, 37, 39, 41, 43, 45, -1, 47, 49, 51, 53, 55, 57, 59, 61, -1, 63, -1, -1, -1, 65, 67, 69, 71, 73, 75, 77, 79, 81, 83, 85, 87, 89, 91, 93, 95, -1, 97, -1, 99, -1, 101, -1, 103, -1, -1, -1, -1, -1, -1, -1, -1, -1, -1, -1, -1, -1, -1, -1, -1, -1, -1, -1, -1, -1, -1, -1, -1, -1, -1, -1, -1, -1, -1, -1, -1, -1, -1, -1, -1, -1, -1, -1, -1, -1, -1, -1, -1], "loss_changes": [13798.695, 3646.788, 6080.373, 3378.8804, 2576.7432, 5628.494, 4140.2, 983.61993, 3594.4468, 2841.132, 1628.873, 2180.6182, 6931.1924, 4231.833, 4914.9033, 697.10583, 197.01306, 1252.3406, 2960.1802, 1256.0381, 5579.283, 3155.8818, 1772.3643, 0.0, 2808.337, 4132.56, 1521.1914, 469.7256, 1306.5709, 2185.51, 4499.175, 52.130085, 0.0, 21.320892, 0.0, 0.0, 0.0, 1367.8604, 2007.0001, 1418.3895, 682.25195, 4067.0864, 3624.8125, 643.43506, 3075.219, 307.03516, 549.9768, 483.31448, 2372.0967, 2816.6143, 3749.5645, 1295.6549, 357.59717, 0.0, 273.08203, 0.0, 118.35538, 0.0, 1841.1877, 0.0, 1863.3906, 0.0, 0.0, 0.0, 0.0, 0.0, 0.0, 0.0, 0.0, 0.0, 0.0, 0.0, 0.0, 0.0, 0.0, 0.0, 0.0, 0.0, 0.0, 0.0, 0.0, 0.0, 0.0, 0.0, 0.0, 0.0, 0.0, 0.0, 0.0, 0.0, 0.0, 0.0, 0.0, 0.0, 0.0, 0.0, 0.0, 0.0, 0.0, 0.0, 0.0, 0.0, 0.0, 0.0, 0.0], "parents": [2147483647, 0, 0, 1, 1, 2, 2, 3, 3, 4, 4, 5, 5, 6, 6, 7, 7, 8, 8, 9, 9, 10, 10, 11, 11, 12, 12, 13, 13, 14, 14, 15, 15, 16, 16, 17, 17, 18, 18, 19, 19, 20, 20, 21, 21, 22, 22, 24, 24, 25, 25, 26, 26, 27, 27, 28, 28, 29, 29, 30, 30, 31, 31, 33, 33, 37, 37, 38, 38, 39, 39, 40, 40, 41, 41, 42, 42, 43, 43, 44, 44, 45, 45, 46, 46, 47, 47, 48, 48, 49, 49, 50, 50, 51, 51, 52, 52, 54, 54, 56, 56, 58, 58, 60, 60], "right_children": [2, 4, 6, 8, 10, 12, 14, 16, 18, 20, 22, 24, 26, 28, 30, 32, 34, 36, 38, 40, 42, 44, 46, -1, 48, 50, 52, 54, 56, 58, 60, 62, -1, 64, -1, -1, -1, 66, 68, 70, 72, 74, 76, 78, 80, 82, 84, 86, 88, 90, 92, 94, 96, -1, 98, -1, 100, -1, 102, -1, 104, -1, -1, -1, -1, -1, -1, -1, -1, -1, -1, -1, -1, -1, -1, -1, -1, -1, -1, -1, -1, -1, -1, -1, -1, -1, -1, -1, -1, -1, -1, -1, -1, -1, -1, -1, -1, -1, -1, -1, -1, -1, -1, -1, -1], "split_conditions": [-0.009918765, -0.013947743, 0.018583724, -0.03665608, 0.05068012, -0.041396882, 0.03259528, -0.014828451, -0.042570855, -0.053629685, -0.023860566, -0.03235593, 0.03023191, 0.05068012, 0.056307144, -0.08137423, 0.03081083, 0.027178291, -0.0010776975, -0.06735141, -0.0115950145, -0.049105015, 0.009438663, -2.0408707, -0.06363517, -0.021295324, 0.0024165425, -0.022884678, 0.0072065163, -0.07653558, -0.00061173533, 0.0053830603, -5.8048854, 0.016280675, -1.5371534, -6.0187716, 2.335521, -0.018113693, 0.027178291, -0.07949717, -0.103593096, -0.039493382, -0.009361912, -0.07626374, 0.045340985, -0.057803027, 0.0155053595, -0.0854304, -0.023584206, -0.026684383, 0.06883138, 0.008100982, 0.07076875, 2.4639497, 0.048627585, 5.226496, 0.017293394, 9.204167, 0.017293394, -6.9427195, -0.012576583, -0.99637073, 0.9915734, 2.6642244, 0.4514786, 12.197916, 1.9535576, 5.548801, -3.973259, -5.1067553, 3.5237894, 1.0670403, -6.077233, -2.2075741, 4.7641153, -5.9747076, 0.24790508, -0.8001168, -7.1981554, 3.1283288, -7.7212048, -3.4269326, -8.783588, 1.7174996, -3.4194505, 2.1848373, -4.550415, 13.657257, 2.3604825, -0.29918733, -7.6083922, 3.4138443, -2.8095427, -5.3414993, 0.576622, -10.798891, -3.3100717, 13.493863, 3.19143, -4.1774735, -0.5613983, -3.688803, 1.1336458, 8.703883, 3.9422302], "split_indices": [8, 6, 2, 3, 1, 5, 2, 2, 8, 2, 5, 6, 6, 1, 2, 4, 0, 0, 9, 9, 2, 0, 4, 0, 0, 2, 2, 3, 9, 6, 8, 0, 0, 0, 0, 0, 0, 8, 0, 2, 0, 7, 9, 2, 0, 8, 6, 0, 4, 2, 5, 3, 0, 0, 9, 0, 3, 0, 3, 0, 4, 0, 0, 0, 0, 0, 0, 0, 0, 0, 0, 0, 0, 0, 0, 0, 0, 0, 0, 0, 0, 0, 0, 0, 0, 0, 0, 0, 0, 0, 0, 0, 0, 0, 0, 0, 0, 0, 0, 0, 0, 0, 0, 0, 0], "split_type": [0, 0, 0, 0, 0, 0, 0, 0, 0, 0, 0, 0, 0, 0, 0, 0, 0, 0, 0, 0, 0, 0, 0, 0, 0, 0, 0, 0, 0, 0, 0, 0, 0, 0, 0, 0, 0, 0, 0, 0, 0, 0, 0, 0, 0, 0, 0, 0, 0, 0, 0, 0, 0, 0, 0, 0, 0, 0, 0, 0, 0, 0, 0, 0, 0, 0, 0, 0, 0, 0, 0, 0, 0, 0, 0, 0, 0, 0, 0, 0, 0, 0, 0, 0, 0, 0, 0, 0, 0, 0, 0, 0, 0, 0, 0, 0, 0, 0, 0, 0, 0, 0, 0, 0, 0], "sum_hessian": [353.0, 161.0, 192.0, 31.0, 130.0, 106.0, 86.0, 13.0, 18.0, 86.0, 44.0, 12.0, 94.0, 15.0, 71.0, 9.0, 4.0, 5.0, 13.0, 22.0, 64.0, 22.0, 22.0, 2.0, 10.0, 75.0, 19.0, 9.0, 6.0, 28.0, 43.0, 3.0, 6.0, 3.0, 1.0, 3.0, 2.0, 7.0, 6.0, 5.0, 17.0, 31.0, 33.0, 10.0, 12.0, 15.0, 7.0, 2.0, 8.0, 21.0, 54.0, 13.0, 6.0, 1.0, 8.0, 3.0, 3.0, 1.0, 27.0, 2.0, 41.0, 2.0, 1.0, 2.0, 1.0, 5.0, 2.0, 3.0, 3.0, 2.0, 3.0, 1.0, 16.0, 11.0, 20.0, 18.0, 15.0, 2.0, 8.0, 10.0, 2.0, 3.0, 12.0, 2.0, 5.0, 1.0, 1.0, 5.0, 3.0, 15.0, 6.0, 44.0, 10.0, 8.0, 5.0, 4.0, 2.0, 7.0, 1.0, 1.0, 2.0, 12.0, 15.0, 11.0, 30.0], "tree_param": {"num_deleted": "0", "num_feature": "10", "num_nodes": "105", "size_leaf_vector": "1"}}, {"base_weights": [0.33848724, -8.022363, 3.0513806, -13.805142, -4.5746603, 1.1520483, 12.192679, 2.3404021, -16.195234, 0.6266935, -11.049407, 0.24791388, 18.554647, 1.609879, 17.261457, -0.9692963, 2.1394975, -7.7197275, -12.424527, 11.182283, -6.2657747, 4.062726, -14.121371, 5.1822376, -3.0053067, 4.792863, 10.233065, 21.560106, -9.418416, 23.052002, 10.392072, -14.016633, 0.6993058, 21.084648, -8.87843, 3.223749, -12.860769, -2.6011333, 2.824089, -21.124985, -9.110637, 0.9981936, 17.118446, -6.7894764, 3.521927, 6.823018, -1.9894575, 7.7274766, 0.08540497, -7.462692, -3.219518, 13.933526, 35.927208, 4.2456055, 16.007837, -5.0121098, -0.7812094, 0.4776936, 9.16963, 3.6990588, -8.138274, 2.2202096, -2.2791145, -4.8743095, 3.6593173, -2.7938604, -7.904905, 3.946524, -3.550594, 1.418965, -4.201605, 10.782645, 2.3439517, -3.5699532, 0.12390349, 5.660512, -0.8151833, 0.9478107, -4.1600385, -2.1912959, 2.2154572, 0.49066547, 5.502247, 11.625495, 3.2707512, 2.2100365, -1.3357071, 6.798156, 1.1070076], "categories": [], "categories_nodes": [], "categories_segments": [], "categories_sizes": [], "default_left": [0, 0, 0, 0, 0, 0, 0, 0, 0, 0, 0, 0, 0, 0, 0, 0, 0, 0, 0, 0, 0, 0, 0, 0, 0, 0, 0, 0, 0, 0, 0, 0, 0, 0, 0, 0, 0, 0, 0, 0, 0, 0, 0, 0, 0, 0, 0, 0, 0, 0, 0, 0, 0, 0, 0, 0, 0, 0, 0, 0, 0, 0, 0, 0, 0, 0, 0, 0, 0, 0, 0, 0, 0, 0, 0, 0, 0, 0, 0, 0, 0, 0, 0, 0, 0, 0, 0, 0, 0], "id": 7, "left_children": [1, 3, 5, 7, 9, 11, 13, 15, 17, 19, 21, 23, 25, 27, 29, -1, -1, -1, 31, 33, 35, 37, 39, 41, 43, 45, -1, 47, 49, 51, 53, 55, -1, 57, 59, 61, 63, -1, -1, 65, 67, 69, 71, 73, 75, -1, 77, -1, -1, -1, 79, 81, 83, 85, 87, -1, -1, -1, -1, -1, -1, -1, -1, -1, -1, -1, -1, -1, -1, -1, -1, -1, -1, -1, -1, -1, -1, -1, -1, -1, -1, -1, -1, -1, -1, -1, -1, -1, -1], "loss_changes": [8053.9404, 1671.3916, 4639.067, 1272.7617, 1892.8615, 3504.1465, 2439.7378, 156.51207, 687.2217, 2398.1958, 1217.97, 3434.7446, 2191.3103, 3723.3342, 993.54395, 0.0, 0.0, 0.0, 549.5054, 2769.6294, 1293.1271, 422.29022, 544.4961, 4227.95, 3210.233, 897.4707, 0.0, 528.57153, 973.9076, 1377.8438, 484.3109, 570.5835, 0.0, 1614.5532, 2269.685, 463.0047, 1216.6407, 0.0, 0.0, 248.32666, 1005.03076, 3649.5112, 3572.6924, 3023.1172, 4647.2515, 0.0, 410.7364, 0.0, 0.0, 0.0, 443.79224, 566.2119, 1.59375, 277.13098, 571.95386, 0.0, 0.0, 0.0, 0.0, 0.0, 0.0, 0.0, 0.0, 0.0, 0.0, 0.0, 0.0, 0.0, 0.0, 0.0, 0.0, 0.0, 0.0, 0.0, 0.0, 0.0, 0.0, 0.0, 0.0, 0.0, 0.0, 0.0, 0.0, 0.0, 0.0, 0.0, 0.0, 0.0, 0.0], "parents": [2147483647, 0, 0, 1, 1, 2, 2, 3, 3, 4, 4, 5, 5, 6, 6, 7, 7, 8, 8, 9, 9, 10, 10, 11, 11, 12, 12, 13, 13, 14, 14, 18, 18, 19, 19, 20, 20, 21, 21, 22, 22, 23, 23, 24, 24, 25, 25, 27, 27, 28, 28, 29, 29, 30, 30, 31, 31, 33, 33, 34, 34, 35, 35, 36, 36, 39, 39, 40, 40, 41, 41, 42, 42, 43, 43, 44, 44, 46, 46, 50, 50, 51, 51, 52, 52, 53, 53, 54, 54], "right_children": [2, 4, 6, 8, 10, 12, 14, 16, 18, 20, 22, 24, 26, 28, 30, -1, -1, -1, 32, 34, 36, 38, 40, 42, 44, 46, -1, 48, 50, 52, 54, 56, -1, 58, 60, 62, 64, -1, -1, 66, 68, 70, 72, 74, 76, -1, 78, -1, -1, -1, 80, 82, 84, 86, 88, -1, -1, -1, -1, -1, -1, -1, -1, -1, -1, -1, -1, -1, -1, -1, -1, -1, -1, -1, -1, -1, -1, -1, -1, -1, -1, -1, -1, -1, -1, -1, -1, -1, -1], "split_conditions": [-0.033245593, -0.03665608, 0.059743747, -0.075185925, 0.05068012, 0.1081111, 0.016306823, -0.07949717, -0.049105015, 0.022868635, -0.021311019, -0.0010776975, 0.043373402, -0.031839922, 0.05954058, -0.9692963, 2.1394975, -7.7197275, 0.0024165425, 0.012679974, -0.025191387, 0.027178291, -0.0029028298, 0.017293394, 0.018583724, 0.05068012, 10.233065, 0.07351515, 0.01549073, 0.04448548, -0.03603757, -0.0010776975, 0.6993058, -0.030072445, -0.012779632, 0.07441156, 0.034443367, -2.6011333, 2.824089, -0.056370094, 0.0044604456, 0.0486401, -0.015328488, 0.03081083, 0.03151747, 6.823018, 0.06722868, 7.7274766, 0.08540497, -7.462692, 0.07355214, -0.0018820165, 0.10450081, 0.08590655, 0.068985894, -5.0121098, -0.7812094, 0.4776936, 9.16963, 3.6990588, -8.138274, 2.2202096, -2.2791145, -4.8743095, 3.6593173, -2.7938604, -7.904905, 3.946524, -3.550594, 1.418965, -4.201605, 10.782645, 2.3439517, -3.5699532, 0.12390349, 5.660512, -0.8151833, 0.9478107, -4.1600385, -2.1912959, 2.2154572, 0.49066547, 5.502247, 11.625495, 3.2707512, 2.2100365, -1.3357071, 6.798156, 1.1070076], "split_indices": [8, 3, 3, 2, 1, 7, 8, 2, 0, 6, 6, 9, 2, 4, 2, 0, 0, 0, 2, 3, 3, 0, 6, 3, 2, 1, 0, 3, 9, 9, 6, 9, 0, 9, 0, 6, 0, 0, 0, 0, 6, 6, 4, 0, 2, 0, 4, 0, 0, 0, 2, 0, 3, 9, 8, 0, 0, 0, 0, 0, 0, 0, 0, 0, 0, 0, 0, 0, 0, 0, 0, 0, 0, 0, 0, 0, 0, 0, 0, 0, 0, 0, 0, 0, 0, 0, 0, 0, 0], "split_type": [0, 0, 0, 0, 0, 0, 0, 0, 0, 0, 0, 0, 0, 0, 0, 0, 0, 0, 0, 0, 0, 0, 0, 0, 0, 0, 0, 0, 0, 0, 0, 0, 0, 0, 0, 0, 0, 0, 0, 0, 0, 0, 0, 0, 0, 0, 0, 0, 0, 0, 0, 0, 0, 0, 0, 0, 0, 0, 0, 0, 0, 0, 0, 0, 0, 0, 0, 0, 0, 0, 0, 0, 0, 0, 0, 0, 0, 0, 0, 0, 0, 0, 0, 0, 0, 0, 0, 0, 0], "sum_hessian": [353.0, 86.0, 267.0, 31.0, 55.0, 222.0, 45.0, 4.0, 27.0, 31.0, 24.0, 212.0, 10.0, 15.0, 30.0, 2.0, 2.0, 6.0, 21.0, 12.0, 19.0, 4.0, 20.0, 84.0, 128.0, 6.0, 4.0, 5.0, 10.0, 15.0, 15.0, 19.0, 2.0, 8.0, 4.0, 8.0, 11.0, 1.0, 3.0, 7.0, 13.0, 63.0, 21.0, 81.0, 47.0, 1.0, 5.0, 4.0, 1.0, 2.0, 8.0, 10.0, 5.0, 8.0, 7.0, 15.0, 4.0, 3.0, 5.0, 2.0, 2.0, 6.0, 2.0, 10.0, 1.0, 3.0, 4.0, 1.0, 12.0, 51.0, 12.0, 6.0, 15.0, 47.0, 34.0, 13.0, 34.0, 4.0, 1.0, 6.0, 2.0, 3.0, 7.0, 4.0, 1.0, 6.0, 2.0, 4.0, 3.0], "tree_param": {"num_deleted": "0", "num_feature": "10", "num_nodes": "89", "size_leaf_vector": "1"}}, {"base_weights": [0.34383687, -3.513798, 3.5800703, 2.2719073, -4.900277, -12.189278, 4.5083914, -3.9859653, 8.0280285, -4.4078903, -24.43949, 3.7326458, -16.142221, 13.385155, 2.7498763, 3.2444088, -8.64863, -5.937454, 14.341767, -2.2321417, -8.56031, -8.766617, -2.231154, 2.318841, -0.63915026, -18.781918, 0.74630356, 7.6255946, 9.366016, 9.280431, 2.1755042, -3.2738743, 8.95159, -3.6079454, -0.57522774, -3.649553, 1.3035982, 8.301746, 0.8666131, -8.763068, 0.14978719, -12.9007635, -3.1921594, -6.398463, -7.428698, -11.245056, 10.85688, -0.37699, 8.253146, -1.4691566, 0.23941042, 0.62999153, 3.1606417, 0.5594437, -1.1843022, 3.9773707, -3.522399, -1.6913184, -5.003574, 1.8000087, -1.6583141, -1.8472534, -6.5176697, -2.5033703, 4.4893384, -0.70139354, -2.6415207, 1.6442666, -5.5942, 1.0909219, 6.640681, -3.3377907, 0.8984107, -3.3457627, 3.4573798], "categories": [], "categories_nodes": [], "categories_segments": [], "categories_sizes": [], "default_left": [0, 0, 0, 0, 0, 0, 0, 0, 0, 0, 0, 0, 0, 0, 0, 0, 0, 0, 0, 0, 0, 0, 0, 0, 0, 0, 0, 0, 0, 0, 0, 0, 0, 0, 0, 0, 0, 0, 0, 0, 0, 0, 0, 0, 0, 0, 0, 0, 0, 0, 0, 0, 0, 0, 0, 0, 0, 0, 0, 0, 0, 0, 0, 0, 0, 0, 0, 0, 0, 0, 0, 0, 0, 0, 0], "id": 8, "left_children": [1, 3, 5, 7, 9, 11, 13, 15, 17, 19, 21, 23, 25, 27, 29, 31, 33, 35, 37, 39, 41, -1, -1, -1, -1, 43, -1, 45, -1, -1, 47, 49, 51, -1, 53, -1, -1, -1, 55, 57, 59, 61, 63, -1, 65, 67, 69, 71, 73, -1, -1, -1, -1, -1, -1, -1, -1, -1, -1, -1, -1, -1, -1, -1, -1, -1, -1, -1, -1, -1, -1, -1, -1, -1, -1], "loss_changes": [4431.9893, 1310.6581, 2880.2844, 1184.6737, 1152.605, 752.57605, 2819.8074, 567.46466, 1584.1185, 1146.3584, 26.614258, 86.76953, 489.31934, 2843.564, 2425.748, 289.71353, 265.78986, 437.09143, 2131.6206, 1339.146, 984.02783, 0.0, 0.0, 0.0, 0.0, 72.82788, 0.0, 1585.5216, 0.0, 0.0, 2361.1096, 30.348087, 21.284424, 0.0, 40.277283, 0.0, 0.0, 0.0, 1249.2661, 474.95996, 2158.9102, 1294.4133, 2089.4287, 0.0, 0.43408203, 597.44434, 1629.6978, 3947.4814, 2985.3442, 0.0, 0.0, 0.0, 0.0, 0.0, 0.0, 0.0, 0.0, 0.0, 0.0, 0.0, 0.0, 0.0, 0.0, 0.0, 0.0, 0.0, 0.0, 0.0, 0.0, 0.0, 0.0, 0.0, 0.0, 0.0, 0.0], "parents": [2147483647, 0, 0, 1, 1, 2, 2, 3, 3, 4, 4, 5, 5, 6, 6, 7, 7, 8, 8, 9, 9, 10, 10, 11, 11, 12, 12, 13, 13, 14, 14, 15, 15, 16, 16, 17, 17, 18, 18, 19, 19, 20, 20, 25, 25, 27, 27, 30, 30, 31, 31, 32, 32, 34, 34, 38, 38, 39, 39, 40, 40, 41, 41, 42, 42, 44, 44, 45, 45, 46, 46, 47, 47, 48, 48], "right_children": [2, 4, 6, 8, 10, 12, 14, 16, 18, 20, 22, 24, 26, 28, 30, 32, 34, 36, 38, 40, 42, -1, -1, -1, -1, 44, -1, 46, -1, -1, 48, 50, 52, -1, 54, -1, -1, -1, 56, 58, 60, 62, 64, -1, 66, 68, 70, 72, 74, -1, -1, -1, -1, -1, -1, -1, -1, -1, -1, -1, -1, -1, -1, -1, -1, -1, -1, -1, -1, -1, -1, -1, -1, -1, -1], "split_conditions": [-0.009918765, -0.013947743, -0.057313185, -0.03321323, 0.0007288389, -0.038719688, -0.023584206, -0.06899065, -0.042570855, 0.05068012, -0.0018820165, -0.06726771, 0.071948, -0.031839922, -0.08906294, 0.0053830603, -0.00943939, 0.027178291, -0.0052198046, -0.053629685, -0.02991782, -8.766617, -2.231154, 2.318841, -0.63915026, 0.045340985, 0.74630356, -0.045472477, 9.366016, 9.280431, 0.04448548, -0.01641217, -0.03638469, -3.6079454, 0.03081083, -3.649553, 1.3035982, 8.301746, 0.027178291, -0.027129022, -0.0115950145, -0.03845972, -0.015998872, -6.398463, 0.063503675, -0.0854304, -0.028674295, -0.015998974, 0.013316905, -1.4691566, 0.23941042, 0.62999153, 3.1606417, 0.5594437, -1.1843022, 3.9773707, -3.522399, -1.6913184, -5.003574, 1.8000087, -1.6583141, -1.8472534, -6.5176697, -2.5033703, 4.4893384, -0.70139354, -2.6415207, 1.6442666, -5.5942, 1.0909219, 6.640681, -3.3377907, 0.8984107, -3.3457627, 3.4573798], "split_indices": [8, 6, 3, 3, 7, 4, 4, 4, 8, 1, 0, 0, 7, 4, 0, 0, 2, 0, 9, 2, 2, 0, 0, 0, 0, 0, 0, 0, 0, 0, 9, 0, 2, 0, 0, 0, 0, 0, 0, 8, 2, 8, 8, 0, 0, 0, 6, 3, 8, 0, 0, 0, 0, 0, 0, 0, 0, 0, 0, 0, 0, 0, 0, 0, 0, 0, 0, 0, 0, 0, 0, 0, 0, 0, 0], "split_type": [0, 0, 0, 0, 0, 0, 0, 0, 0, 0, 0, 0, 0, 0, 0, 0, 0, 0, 0, 0, 0, 0, 0, 0, 0, 0, 0, 0, 0, 0, 0, 0, 0, 0, 0, 0, 0, 0, 0, 0, 0, 0, 0, 0, 0, 0, 0, 0, 0, 0, 0, 0, 0, 0, 0, 0, 0, 0, 0, 0, 0, 0, 0, 0, 0, 0, 0, 0, 0, 0, 0, 0, 0, 0, 0], "sum_hessian": [353.0, 161.0, 192.0, 31.0, 130.0, 10.0, 182.0, 15.0, 16.0, 128.0, 2.0, 2.0, 8.0, 29.0, 153.0, 6.0, 9.0, 5.0, 11.0, 85.0, 43.0, 1.0, 1.0, 1.0, 1.0, 7.0, 1.0, 23.0, 6.0, 2.0, 151.0, 3.0, 3.0, 6.0, 3.0, 3.0, 2.0, 5.0, 6.0, 22.0, 63.0, 23.0, 20.0, 5.0, 2.0, 3.0, 20.0, 107.0, 44.0, 2.0, 1.0, 1.0, 2.0, 2.0, 1.0, 3.0, 3.0, 17.0, 5.0, 31.0, 32.0, 14.0, 9.0, 16.0, 4.0, 1.0, 1.0, 1.0, 2.0, 13.0, 7.0, 25.0, 82.0, 6.0, 38.0], "tree_param": {"num_deleted": "0", "num_feature": "10", "num_nodes": "75", "size_leaf_vector": "1"}}, {"base_weights": [0.22258972, -4.81168, 1.8560183, -10.151815, -3.0660899, 0.83242095, 8.876294, -0.5040863, -12.392218, -5.8008943, -2.2679858, 1.1644616, -7.570063, 17.857466, 4.9287734, -1.087278, 1.1820221, -20.682589, -5.989961, -3.7194676, 6.087111, 16.992252, 0.6712501, 22.740198, -1.1156412, 1.1664696, 10.455582, 0.037882235, 0.44755402, -6.6772504, -1.6849686, -1.2038155, -9.77778, 0.16505668, -9.300092, 16.15127, -7.207301, 2.6821399, 7.424344, 2.468933, -3.3133624, 7.674598, 2.8429627, -1.8526566, 1.350618, -8.730937, 7.9780073, 16.316484, 1.3313812, -1.6586603, 0.70227814, -1.0835192, -4.4219756, -0.5419412, 6.3418994, -3.7757442, 0.6321267, 6.578986, 2.333832, 1.852002, -3.628739, 2.3603215, -0.3130539, -1.5715412, 4.510794, 0.3182007, -3.8579142, -0.350663, 3.6195252, 1.2343392, 5.380199, -1.8449326, 2.5106232], "categories": [], "categories_nodes": [], "categories_segments": [], "categories_sizes": [], "default_left": [0, 0, 0, 0, 0, 0, 0, 0, 0, 0, 0, 0, 0, 0, 0, 0, 0, 0, 0, 0, 0, 0, 0, 0, 0, 0, 0, 0, 0, 0, 0, 0, 0, 0, 0, 0, 0, 0, 0, 0, 0, 0, 0, 0, 0, 0, 0, 0, 0, 0, 0, 0, 0, 0, 0, 0, 0, 0, 0, 0, 0, 0, 0, 0, 0, 0, 0, 0, 0, 0, 0, 0, 0], "id": 9, "left_children": [1, 3, 5, 7, 9, 11, 13, 15, 17, -1, 19, 21, -1, 23, 25, -1, 27, 29, 31, 33, 35, 37, 39, 41, 43, 45, 47, -1, -1, -1, -1, 49, 51, 53, 55, 57, 59, -1, -1, 61, 63, -1, -1, -1, -1, 65, 67, 69, 71, -1, -1, -1, -1, -1, -1, -1, -1, -1, -1, -1, -1, -1, -1, -1, -1, -1, -1, -1, -1, -1, -1, -1, -1], "loss_changes": [2919.9153, 779.8605, 1918.4419, 447.66382, 826.16266, 2063.2993, 1117.3992, 30.58871, 778.4226, 0.0, 810.91345, 1807.4963, 0.0, 951.7759, 507.64215, 0.0, 1.1200056, 41.083008, 187.64893, 1215.5071, 1454.3778, 215.86584, 1634.1974, 59.111816, 113.07726, 1148.3204, 513.0371, 0.0, 0.0, 0.0, 0.0, 104.92985, 130.34418, 1444.1566, 888.57837, 119.66614, 401.72748, 0.0, 0.0, 2985.4028, 2586.8027, 0.0, 0.0, 0.0, 0.0, 296.6314, 387.9427, 44.632812, 314.70395, 0.0, 0.0, 0.0, 0.0, 0.0, 0.0, 0.0, 0.0, 0.0, 0.0, 0.0, 0.0, 0.0, 0.0, 0.0, 0.0, 0.0, 0.0, 0.0, 0.0, 0.0, 0.0, 0.0, 0.0], "parents": [2147483647, 0, 0, 1, 1, 2, 2, 3, 3, 4, 4, 5, 5, 6, 6, 7, 7, 8, 8, 10, 10, 11, 11, 13, 13, 14, 14, 16, 16, 17, 17, 18, 18, 19, 19, 20, 20, 21, 21, 22, 22, 23, 23, 24, 24, 25, 25, 26, 26, 31, 31, 32, 32, 33, 33, 34, 34, 35, 35, 36, 36, 39, 39, 40, 40, 45, 45, 46, 46, 47, 47, 48, 48], "right_children": [2, 4, 6, 8, 10, 12, 14, 16, 18, -1, 20, 22, -1, 24, 26, -1, 28, 30, 32, 34, 36, 38, 40, 42, 44, 46, 48, -1, -1, -1, -1, 50, 52, 54, 56, 58, 60, -1, -1, 62, 64, -1, -1, -1, -1, 66, 68, 70, 72, -1, -1, -1, -1, -1, -1, -1, -1, -1, -1, -1, -1, -1, -1, -1, -1, -1, -1, -1, -1, -1, -1, -1, -1], "split_conditions": [-0.033245593, -0.050427485, 0.06816308, 0.0044604456, -0.10063756, 0.06492964, -0.015328488, -0.07449446, 0.019186998, -5.8008943, 0.01549073, -0.08179786, -7.570063, 0.0838437, 0.05276969, -1.087278, -0.06548562, 0.0053830603, -0.043929376, -0.012779632, 0.027917052, 0.013566522, 0.011823721, 0.06662945, 0.03081083, 0.025315236, 0.012648137, 0.037882235, 0.44755402, -6.6772504, -1.6849686, -0.07452744, -0.06994845, -0.01641217, 0.045340985, -0.04765985, -0.0382074, 2.6821399, 7.424344, 0.05068012, 0.054719973, 7.674598, 2.8429627, -1.8526566, 1.350618, -0.0029449128, -0.0013138774, -0.056177046, 0.07355214, -1.6586603, 0.70227814, -1.0835192, -4.4219756, -0.5419412, 6.3418994, -3.7757442, 0.6321267, 6.578986, 2.333832, 1.852002, -3.628739, 2.3603215, -0.3130539, -1.5715412, 4.510794, 0.3182007, -3.8579142, -0.350663, 3.6195252, 1.2343392, 5.380199, -1.8449326, 2.5106232], "split_indices": [8, 3, 2, 6, 4, 2, 4, 4, 6, 0, 9, 0, 0, 3, 9, 0, 2, 0, 2, 0, 9, 4, 6, 3, 0, 3, 0, 0, 0, 0, 0, 3, 3, 0, 0, 5, 0, 0, 0, 1, 8, 0, 0, 0, 0, 4, 5, 3, 2, 0, 0, 0, 0, 0, 0, 0, 0, 0, 0, 0, 0, 0, 0, 0, 0, 0, 0, 0, 0, 0, 0, 0, 0], "split_type": [0, 0, 0, 0, 0, 0, 0, 0, 0, 0, 0, 0, 0, 0, 0, 0, 0, 0, 0, 0, 0, 0, 0, 0, 0, 0, 0, 0, 0, 0, 0, 0, 0, 0, 0, 0, 0, 0, 0, 0, 0, 0, 0, 0, 0, 0, 0, 0, 0, 0, 0, 0, 0, 0, 0, 0, 0, 0, 0, 0, 0, 0, 0, 0, 0, 0, 0, 0, 0, 0, 0, 0, 0], "sum_hessian": [353.0, 86.0, 267.0, 20.0, 66.0, 234.0, 33.0, 4.0, 16.0, 2.0, 64.0, 232.0, 2.0, 9.0, 24.0, 1.0, 3.0, 6.0, 10.0, 55.0, 9.0, 6.0, 226.0, 7.0, 2.0, 15.0, 9.0, 1.0, 2.0, 5.0, 1.0, 5.0, 5.0, 33.0, 22.0, 5.0, 4.0, 4.0, 2.0, 156.0, 70.0, 5.0, 2.0, 1.0, 1.0, 6.0, 9.0, 5.0, 4.0, 2.0, 3.0, 3.0, 2.0, 31.0, 2.0, 17.0, 5.0, 2.0, 3.0, 1.0, 3.0, 61.0, 95.0, 64.0, 6.0, 2.0, 4.0, 3.0, 6.0, 1.0, 4.0, 2.0, 2.0], "tree_param": {"num_deleted": "0", "num_feature": "10", "num_nodes": "73", "size_leaf_vector": "1"}}, {"base_weights": [0.19285634, 3.0990295, -1.6343849, 8.013053, 0.8421661, -2.8407786, 3.3414211, -3.077922, 9.154646, -1.5662693, 8.449715, -2.1062174, -14.823873, -6.8535933, 6.638504, 7.3590093, 20.611431, 3.5857832, -6.67599, 10.720779, -5.0180397, -2.4107003, 15.342412, -24.158194, 5.2171593, -14.322671, 4.973834, 16.8114, -0.81444854, 11.595044, -0.42840847, 0.86832964, 7.2951226, 0.1529662, 12.732017, 2.638722, -13.1468725, 2.6424408, 13.99418, 1.3691813, -3.6269555, -1.746324, -9.4517355, 1.0491875, 5.8548985, -8.257137, -10.205912, 3.759511, -2.5089707, -6.1410117, 0.6971639, 1.813456, 0.10346375, 27.245716, 2.4848392, -4.8938203, 16.726494, 1.3583969, 5.8606153, 2.4091036, -1.805993, 1.9344035, -3.7349615, -2.9531777, 2.7622666, 3.5758317, -4.8748426, -0.8925099, 2.2797914, -0.29054797, 4.9706, -0.38548052, 1.0016122, -0.7844586, 2.100526, -6.9111953, -0.51413137, -4.6745806, 2.0575883, -0.9865609, 1.3002846, 1.7927423, 8.829177, 2.135074, -1.8190689, -0.11599922, -3.927749, 6.0967746, 0.8907349], "categories": [], "categories_nodes": [], "categories_segments": [], "categories_sizes": [], "default_left": [0, 0, 0, 0, 0, 0, 0, 0, 0, 0, 0, 0, 0, 0, 0, 0, 0, 0, 0, 0, 0, 0, 0, 0, 0, 0, 0, 0, 0, 0, 0, 0, 0, 0, 0, 0, 0, 0, 0, 0, 0, 0, 0, 0, 0, 0, 0, 0, 0, 0, 0, 0, 0, 0, 0, 0, 0, 0, 0, 0, 0, 0, 0, 0, 0, 0, 0, 0, 0, 0, 0, 0, 0, 0, 0, 0, 0, 0, 0, 0, 0, 0, 0, 0, 0, 0, 0, 0, 0], "id": 10, "left_children": [1, 3, 5, 7, 9, 11, 13, -1, 15, 17, 19, 21, 23, 25, 27, 29, 31, 33, 35, 37, 39, 41, 43, 45, 47, 49, 51, 53, 55, 57, 59, -1, -1, 61, -1, 63, 65, 67, 69, 71, -1, 73, 75, -1, -1, 77, -1, -1, -1, -1, 79, -1, -1, 81, 83, 85, 87, -1, -1, -1, -1, -1, -1, -1, -1, -1, -1, -1, -1, -1, -1, -1, -1, -1, -1, -1, -1, -1, -1, -1, -1, -1, -1, -1, -1, -1, -1, -1, -1], "loss_changes": [1884.904, 1512.6201, 1318.0984, 990.90845, 1753.852, 1517.9851, 1490.8914, 0.0, 691.7822, 1945.7039, 757.2787, 924.2251, 1996.7312, 1042.9783, 2515.69, 1225.5154, 257.87988, 4928.5527, 2264.8438, 491.8938, 197.23007, 755.3471, 80.06726, 816.75366, 502.14313, 660.5979, 22.70375, 2025.1289, 1512.977, 1258.2991, 710.51013, 0.0, 0.0, 2857.017, 0.0, 1402.5813, 1904.6431, 217.52351, 555.3435, 19.972073, 0.0, 1173.2101, 1432.2657, 0.0, 0.0, 549.75037, 0.0, 0.0, 0.0, 0.0, 57.742825, 0.0, 0.0, 195.90479, 320.33167, 623.13367, 137.55078, 0.0, 0.0, 0.0, 0.0, 0.0, 0.0, 0.0, 0.0, 0.0, 0.0, 0.0, 0.0, 0.0, 0.0, 0.0, 0.0, 0.0, 0.0, 0.0, 0.0, 0.0, 0.0, 0.0, 0.0, 0.0, 0.0, 0.0, 0.0, 0.0, 0.0, 0.0, 0.0], "parents": [2147483647, 0, 0, 1, 1, 2, 2, 3, 3, 4, 4, 5, 5, 6, 6, 8, 8, 9, 9, 10, 10, 11, 11, 12, 12, 13, 13, 14, 14, 15, 15, 16, 16, 17, 17, 18, 18, 19, 19, 20, 20, 21, 21, 22, 22, 23, 23, 24, 24, 25, 25, 26, 26, 27, 27, 28, 28, 29, 29, 30, 30, 33, 33, 35, 35, 36, 36, 37, 37, 38, 38, 39, 39, 41, 41, 42, 42, 45, 45, 50, 50, 53, 53, 54, 54, 55, 55, 56, 56], "right_children": [2, 4, 6, 8, 10, 12, 14, -1, 16, 18, 20, 22, 24, 26, 28, 30, 32, 34, 36, 38, 40, 42, 44, 46, 48, 50, 52, 54, 56, 58, 60, -1, -1, 62, -1, 64, 66, 68, 70, 72, -1, 74, 76, -1, -1, 78, -1, -1, -1, -1, 80, -1, -1, 82, 84, 86, 88, -1, -1, -1, -1, -1, -1, -1, -1, -1, -1, -1, -1, -1, -1, -1, -1, -1, -1, -1, -1, -1, -1, -1, -1, -1, -1, -1, -1, -1, -1, -1, -1], "split_conditions": [-0.017629381, 0.05068012, 0.0379505, -0.071772285, 0.056307144, 0.029894229, -0.006584468, -3.077922, 0.09187461, 0.015568459, 0.06413415, 0.08918603, 0.03081083, 0.01549073, 0.0030644094, 0.013566522, -0.0382074, 0.0140735, 0.0024165425, -0.026365755, 0.001750522, 0.05759701, -0.034574863, 0.03564379, 0.0024165425, 0.034205813, 0.048973523, 0.022868635, 0.06713621, 0.023371415, -0.0018820165, 0.86832964, 7.2951226, 0.023774944, 12.732017, -0.005696818, -0.034214552, 0.09618619, -0.0125561245, -0.04183994, -3.6269555, 0.017036071, 0.0030644094, 1.0491875, 5.8548985, -0.034229066, -10.205912, 3.759511, -2.5089707, -6.1410117, -0.009147094, 1.813456, 0.10346375, -0.0382074, 0.016280675, 0.041276824, 0.03259528, 1.3583969, 5.8606153, 2.4091036, -1.805993, 1.9344035, -3.7349615, -2.9531777, 2.7622666, 3.5758317, -4.8748426, -0.8925099, 2.2797914, -0.29054797, 4.9706, -0.38548052, 1.0016122, -0.7844586, 2.100526, -6.9111953, -0.51413137, -4.6745806, 2.0575883, -0.9865609, 1.3002846, 1.7927423, 8.829177, 2.135074, -1.8190689, -0.11599922, -3.927749, 6.0967746, 0.8907349], "split_indices": [6, 1, 3, 5, 2, 3, 6, 0, 7, 8, 5, 5, 0, 9, 9, 4, 0, 8, 2, 5, 0, 4, 0, 3, 2, 4, 0, 6, 0, 8, 0, 0, 0, 9, 0, 4, 9, 2, 3, 0, 0, 8, 9, 0, 0, 2, 0, 0, 0, 0, 0, 0, 0, 0, 0, 6, 2, 0, 0, 0, 0, 0, 0, 0, 0, 0, 0, 0, 0, 0, 0, 0, 0, 0, 0, 0, 0, 0, 0, 0, 0, 0, 0, 0, 0, 0, 0, 0, 0], "split_type": [0, 0, 0, 0, 0, 0, 0, 0, 0, 0, 0, 0, 0, 0, 0, 0, 0, 0, 0, 0, 0, 0, 0, 0, 0, 0, 0, 0, 0, 0, 0, 0, 0, 0, 0, 0, 0, 0, 0, 0, 0, 0, 0, 0, 0, 0, 0, 0, 0, 0, 0, 0, 0, 0, 0, 0, 0, 0, 0, 0, 0, 0, 0, 0, 0, 0, 0, 0, 0, 0, 0, 0, 0, 0, 0, 0, 0, 0, 0, 0, 0, 0, 0, 0, 0, 0, 0, 0, 0], "sum_hessian": [353.0, 136.0, 217.0, 42.0, 94.0, 175.0, 42.0, 2.0, 40.0, 72.0, 22.0, 166.0, 9.0, 10.0, 32.0, 36.0, 4.0, 36.0, 36.0, 19.0, 3.0, 164.0, 2.0, 6.0, 3.0, 6.0, 4.0, 13.0, 19.0, 23.0, 13.0, 1.0, 3.0, 34.0, 2.0, 15.0, 21.0, 6.0, 13.0, 2.0, 1.0, 151.0, 13.0, 1.0, 1.0, 3.0, 3.0, 2.0, 1.0, 4.0, 2.0, 3.0, 1.0, 7.0, 6.0, 16.0, 3.0, 13.0, 10.0, 5.0, 8.0, 23.0, 11.0, 5.0, 10.0, 2.0, 19.0, 3.0, 3.0, 2.0, 11.0, 1.0, 1.0, 138.0, 13.0, 4.0, 9.0, 2.0, 1.0, 1.0, 1.0, 1.0, 6.0, 4.0, 2.0, 11.0, 5.0, 2.0, 1.0], "tree_param": {"num_deleted": "0", "num_feature": "10", "num_nodes": "89", "size_leaf_vector": "1"}}, {"base_weights": [0.20448987, -0.5391895, 4.7368445, -5.41504, 0.012412526, 11.145675, -2.6704578, -6.596909, 7.8147073, 2.0192664, -1.6010216, 13.147349, -3.650795, -11.839778, 5.9989495, -3.672108, -17.19663, 3.1074007, 0.40921786, -4.177659, 5.6479754, -5.479119, 0.75867265, 1.0071248, 17.13814, 1.6628014, -8.56284, 1.6602013, -13.922303, 12.55191, -1.4110042, -2.5729558, -1.1481433, -1.2876332, -5.6757336, -12.2502, -1.8829815, 8.517919, -2.044513, 5.1522613, -6.594848, -4.056306, 3.1174517, -3.7938633, 1.6668996, 19.25645, 0.12776184, -3.0829127, -0.77036595, 1.2466187, -16.145613, 3.6788483, 5.486099, -4.0946717, 1.0596329, 1.2920115, -1.3545102, 0.07529144, -4.6220593, 3.4181464, -1.4460683, 1.2400723, 5.848336, -3.4314606, 1.6016016, -2.2955616, 2.7178254, 3.2669158, -1.9741113, -1.4964758, 1.8276433, -0.24738847, -1.9052354, -0.61001134, 6.2433996, -0.10078583, 0.15827866, -5.5800505, 0.89180833, 0.21893694, 1.3255813, -1.3716729, -0.3276581], "categories": [], "categories_nodes": [], "categories_segments": [], "categories_sizes": [], "default_left": [0, 0, 0, 0, 0, 0, 0, 0, 0, 0, 0, 0, 0, 0, 0, 0, 0, 0, 0, 0, 0, 0, 0, 0, 0, 0, 0, 0, 0, 0, 0, 0, 0, 0, 0, 0, 0, 0, 0, 0, 0, 0, 0, 0, 0, 0, 0, 0, 0, 0, 0, 0, 0, 0, 0, 0, 0, 0, 0, 0, 0, 0, 0, 0, 0, 0, 0, 0, 0, 0, 0, 0, 0, 0, 0, 0, 0, 0, 0, 0, 0, 0, 0], "id": 11, "left_children": [1, 3, 5, 7, 9, 11, 13, 15, 17, 19, 21, 23, 25, 27, 29, 31, 33, -1, -1, 35, 37, 39, 41, 43, 45, -1, 47, -1, 49, 51, 53, -1, 55, -1, -1, 57, 59, 61, 63, -1, 65, 67, 69, 71, -1, 73, 75, -1, -1, -1, 77, 79, -1, 81, -1, -1, -1, -1, -1, -1, -1, -1, -1, -1, -1, -1, -1, -1, -1, -1, -1, -1, -1, -1, -1, -1, -1, -1, -1, -1, -1, -1, -1], "loss_changes": [1195.753, 820.3736, 2403.371, 536.2637, 893.6627, 847.67676, 1978.8479, 835.91235, 35.088745, 2789.4768, 1404.2788, 1145.5176, 228.09593, 511.2224, 648.95355, 287.23837, 52.16394, 0.0, 0.0, 829.0314, 1739.4214, 1579.21, 1102.9624, 173.96478, 646.13916, 0.0, 4.4291077, 0.0, 509.2068, 288.93933, 107.32255, 0.0, 331.6648, 0.0, 0.0, 398.4867, 1497.8185, 2662.5386, 1586.8823, 0.0, 995.9492, 1278.85, 1597.6675, 25.131363, 0.0, 571.9663, 0.7334733, 0.0, 0.0, 0.0, 524.56226, 5.50169, 0.0, 2.175705, 0.0, 0.0, 0.0, 0.0, 0.0, 0.0, 0.0, 0.0, 0.0, 0.0, 0.0, 0.0, 0.0, 0.0, 0.0, 0.0, 0.0, 0.0, 0.0, 0.0, 0.0, 0.0, 0.0, 0.0, 0.0, 0.0, 0.0, 0.0, 0.0], "parents": [2147483647, 0, 0, 1, 1, 2, 2, 3, 3, 4, 4, 5, 5, 6, 6, 7, 7, 8, 8, 9, 9, 10, 10, 11, 11, 12, 12, 13, 13, 14, 14, 15, 15, 16, 16, 19, 19, 20, 20, 21, 21, 22, 22, 23, 23, 24, 24, 26, 26, 28, 28, 29, 29, 30, 30, 32, 32, 35, 35, 36, 36, 37, 37, 38, 38, 40, 40, 41, 41, 42, 42, 43, 43, 45, 45, 46, 46, 50, 50, 51, 51, 53, 53], "right_children": [2, 4, 6, 8, 10, 12, 14, 16, 18, 20, 22, 24, 26, 28, 30, 32, 34, -1, -1, 36, 38, 40, 42, 44, 46, -1, 48, -1, 50, 52, 54, -1, 56, -1, -1, 58, 60, 62, 64, -1, 66, 68, 70, 72, -1, 74, 76, -1, -1, -1, 78, 80, -1, 82, -1, -1, -1, -1, -1, -1, -1, -1, -1, -1, -1, -1, -1, -1, -1, -1, -1, -1, -1, -1, -1, -1, -1, -1, -1, -1, -1, -1, -1], "split_conditions": [0.05608052, -0.057940934, 0.05071725, 0.019913213, -0.0010776975, 0.048973523, 0.06301517, -0.0015689598, 0.045340985, -0.03845972, 0.019632837, -0.0382074, 0.05068012, -0.06549067, 0.049415193, -0.006584468, -0.029526427, 3.1074007, 0.40921786, -0.06726771, 0.027178291, -0.08179786, 0.009015599, -0.009361912, 0.13237579, 1.6628014, 0.05260606, 1.6602013, -0.037462503, 0.074108444, -0.03603757, -2.5729558, -0.070874676, -1.2876332, -5.6757336, -0.09996056, -0.04183994, 0.009015599, -0.034214552, 5.1522613, 0.07247433, 0.023774944, -0.03235593, -0.045472477, 1.6668996, -0.038540315, 0.027178291, -3.0829127, -0.77036595, 1.2466187, 0.06924089, -0.027309787, 5.486099, 0.06172487, 1.0596329, 1.2920115, -1.3545102, 0.07529144, -4.6220593, 3.4181464, -1.4460683, 1.2400723, 5.848336, -3.4314606, 1.6016016, -2.2955616, 2.7178254, 3.2669158, -1.9741113, -1.4964758, 1.8276433, -0.24738847, -1.9052354, -0.61001134, 6.2433996, -0.10078583, 0.15827866, -5.5800505, 0.89180833, 0.21893694, 1.3255813, -1.3716729, -0.3276581], "split_indices": [7, 2, 4, 0, 9, 0, 8, 4, 0, 8, 9, 0, 1, 6, 3, 6, 8, 0, 0, 0, 0, 0, 0, 9, 8, 0, 0, 0, 2, 4, 6, 0, 2, 0, 0, 0, 0, 0, 9, 0, 2, 9, 6, 0, 0, 2, 0, 0, 0, 0, 2, 0, 0, 4, 0, 0, 0, 0, 0, 0, 0, 0, 0, 0, 0, 0, 0, 0, 0, 0, 0, 0, 0, 0, 0, 0, 0, 0, 0, 0, 0, 0, 0], "split_type": [0, 0, 0, 0, 0, 0, 0, 0, 0, 0, 0, 0, 0, 0, 0, 0, 0, 0, 0, 0, 0, 0, 0, 0, 0, 0, 0, 0, 0, 0, 0, 0, 0, 0, 0, 0, 0, 0, 0, 0, 0, 0, 0, 0, 0, 0, 0, 0, 0, 0, 0, 0, 0, 0, 0, 0, 0, 0, 0, 0, 0, 0, 0, 0, 0, 0, 0, 0, 0, 0, 0, 0, 0, 0, 0, 0, 0, 0, 0, 0, 0, 0, 0], "sum_hessian": [353.0, 304.0, 49.0, 30.0, 274.0, 26.0, 23.0, 28.0, 2.0, 122.0, 152.0, 23.0, 3.0, 11.0, 12.0, 23.0, 5.0, 1.0, 1.0, 45.0, 77.0, 57.0, 95.0, 6.0, 17.0, 1.0, 2.0, 1.0, 10.0, 6.0, 6.0, 7.0, 16.0, 1.0, 4.0, 9.0, 36.0, 56.0, 21.0, 2.0, 55.0, 31.0, 64.0, 3.0, 3.0, 15.0, 2.0, 1.0, 1.0, 1.0, 9.0, 3.0, 3.0, 4.0, 2.0, 6.0, 10.0, 2.0, 7.0, 6.0, 30.0, 41.0, 15.0, 9.0, 12.0, 52.0, 3.0, 4.0, 27.0, 17.0, 47.0, 2.0, 1.0, 1.0, 14.0, 1.0, 1.0, 8.0, 1.0, 1.0, 2.0, 3.0, 1.0], "tree_param": {"num_deleted": "0", "num_feature": "10", "num_nodes": "83", "size_leaf_vector": "1"}}, {"base_weights": [0.17541596, 0.7379306, -4.2587724, 1.360812, -2.934154, -9.935174, -0.820126, 0.53926194, 9.759231, -6.4373665, 4.036705, -5.4238167, -4.294854, -2.1367881, 2.995964, 0.08644667, 5.968495, -5.7333317, 12.24547, -11.576797, 0.63028336, 8.248293, -1.2059193, -2.3940508, -1.7827011, 1.2390879, -6.9869237, -0.6851591, 4.5319843, 0.3746961, 7.9395165, -4.356894, 2.0375443, 17.479136, 1.555872, -20.10668, -5.636297, 14.147541, -4.3423815, -0.2727305, 10.721832, 0.8477066, -3.0207367, 0.57018787, -1.0624069, -3.5318952, 7.1961966, -11.020636, -2.46101, 0.43363982, -1.045353, -0.990292, 2.6863654, -0.6506853, 1.0923982, -0.28303835, 2.8495903, -0.019179154, 0.9360741, 6.147167, -0.117880255, -2.796033, 2.0203652, -7.0057397, -0.094795994, -0.47466636, -4.004668, 0.97688144, 5.0077624, 2.1772912, -2.879878, -0.3088257, 0.18609697, 0.35237277, 3.6351838, -1.0630463, -0.39504704, -0.026171494, 0.28275606, 0.2559183, -2.1631417, 0.43739825, 4.3083405, -3.9270034, -0.41147006, 0.7986523, -2.5414758], "categories": [], "categories_nodes": [], "categories_segments": [], "categories_sizes": [], "default_left": [0, 0, 0, 0, 0, 0, 0, 0, 0, 0, 0, 0, 0, 0, 0, 0, 0, 0, 0, 0, 0, 0, 0, 0, 0, 0, 0, 0, 0, 0, 0, 0, 0, 0, 0, 0, 0, 0, 0, 0, 0, 0, 0, 0, 0, 0, 0, 0, 0, 0, 0, 0, 0, 0, 0, 0, 0, 0, 0, 0, 0, 0, 0, 0, 0, 0, 0, 0, 0, 0, 0, 0, 0, 0, 0, 0, 0, 0, 0, 0, 0, 0, 0, 0, 0, 0, 0], "id": 12, "left_children": [1, 3, 5, 7, 9, 11, 13, 15, 17, 19, 21, 23, -1, 25, -1, 27, 29, 31, 33, 35, 37, 39, 41, -1, 43, 45, 47, 49, 51, 53, 55, -1, 57, 59, 61, 63, 65, 67, 69, 71, 73, -1, 75, 77, -1, 79, 81, 83, 85, -1, -1, -1, -1, -1, -1, -1, -1, -1, -1, -1, -1, -1, -1, -1, -1, -1, -1, -1, -1, -1, -1, -1, -1, -1, -1, -1, -1, -1, -1, -1, -1, -1, -1, -1, -1, -1, -1], "loss_changes": [886.1234, 724.48376, 772.6175, 1857.6619, 1149.3242, 218.81592, 391.28632, 606.7186, 994.64453, 1133.3309, 363.22308, 69.54547, 0.0, 401.62036, 0.0, 788.62146, 206.50952, 302.8043, 1147.6658, 798.7649, 1002.4692, 192.61798, 67.068726, 0.0, 22.70884, 451.73514, 155.44046, 1174.0527, 1207.3792, 57.752792, 202.85614, 0.0, 7.025296, 761.53613, 513.3524, 442.2749, 354.0886, 56.51758, 740.49164, 2.6658628, 79.026184, 0.0, 0.6781883, 0.81656677, 0.0, 151.32452, 266.8586, 81.88385, 207.31256, 0.0, 0.0, 0.0, 0.0, 0.0, 0.0, 0.0, 0.0, 0.0, 0.0, 0.0, 0.0, 0.0, 0.0, 0.0, 0.0, 0.0, 0.0, 0.0, 0.0, 0.0, 0.0, 0.0, 0.0, 0.0, 0.0, 0.0, 0.0, 0.0, 0.0, 0.0, 0.0, 0.0, 0.0, 0.0, 0.0, 0.0, 0.0], "parents": [2147483647, 0, 0, 1, 1, 2, 2, 3, 3, 4, 4, 5, 5, 6, 6, 7, 7, 8, 8, 9, 9, 10, 10, 11, 11, 13, 13, 15, 15, 16, 16, 17, 17, 18, 18, 19, 19, 20, 20, 21, 21, 22, 22, 24, 24, 25, 25, 26, 26, 27, 27, 28, 28, 29, 29, 30, 30, 32, 32, 33, 33, 34, 34, 35, 35, 36, 36, 37, 37, 38, 38, 39, 39, 40, 40, 42, 42, 43, 43, 45, 45, 46, 46, 47, 47, 48, 48], "right_children": [2, 4, 6, 8, 10, 12, 14, 16, 18, 20, 22, 24, -1, 26, -1, 28, 30, 32, 34, 36, 38, 40, 42, -1, 44, 46, 48, 50, 52, 54, 56, -1, 58, 60, 62, 64, 66, 68, 70, 72, 74, -1, 76, 78, -1, 80, 82, 84, 86, -1, -1, -1, -1, -1, -1, -1, -1, -1, -1, -1, -1, -1, -1, -1, -1, -1, -1, -1, -1, -1, -1, -1, -1, -1, -1, -1, -1, -1, -1, -1, -1, -1, -1, -1, -1, -1, -1], "split_conditions": [0.059685014, 0.0520932, 0.001750522, 0.034205813, 0.06301517, 0.0011829459, 0.040648017, 0.05608052, -0.015998872, 0.038075905, 0.049415193, -0.05039625, -4.294854, -0.018061887, 2.995964, 0.04448548, -0.03665608, -0.049105015, 0.048973523, 0.01549073, 0.049416173, -0.027309787, 0.07222193, -2.3940508, -0.017135115, -0.019441826, 0.010585764, 0.05068012, -0.009768886, -0.00405033, -0.0382074, -4.356894, -0.0018820165, 0.05954058, -0.03603757, 0.0379505, 0.08590655, 0.05068012, -0.00405033, -0.049105015, -0.06419889, 0.8477066, -0.043400846, -0.04183994, -1.0624069, 0.019913213, -0.009918765, 0.028758088, 0.045340985, 0.43363982, -1.045353, -0.990292, 2.6863654, -0.6506853, 1.0923982, -0.28303835, 2.8495903, -0.019179154, 0.9360741, 6.147167, -0.117880255, -2.796033, 2.0203652, -7.0057397, -0.094795994, -0.47466636, -4.004668, 0.97688144, 5.0077624, 2.1772912, -2.879878, -0.3088257, 0.18609697, 0.35237277, 3.6351838, -1.0630463, -0.39504704, -0.026171494, 0.28275606, 0.2559183, -2.1631417, 0.43739825, 4.3083405, -3.9270034, -0.41147006, 0.7986523, -2.5414758], "split_indices": [6, 4, 0, 4, 8, 4, 5, 7, 8, 0, 3, 2, 0, 2, 0, 9, 3, 0, 0, 9, 5, 0, 8, 0, 3, 3, 5, 1, 5, 2, 0, 0, 0, 2, 6, 3, 9, 1, 2, 0, 3, 0, 6, 0, 0, 0, 8, 3, 0, 0, 0, 0, 0, 0, 0, 0, 0, 0, 0, 0, 0, 0, 0, 0, 0, 0, 0, 0, 0, 0, 0, 0, 0, 0, 0, 0, 0, 0, 0, 0, 0, 0, 0, 0, 0, 0, 0], "split_type": [0, 0, 0, 0, 0, 0, 0, 0, 0, 0, 0, 0, 0, 0, 0, 0, 0, 0, 0, 0, 0, 0, 0, 0, 0, 0, 0, 0, 0, 0, 0, 0, 0, 0, 0, 0, 0, 0, 0, 0, 0, 0, 0, 0, 0, 0, 0, 0, 0, 0, 0, 0, 0, 0, 0, 0, 0, 0, 0, 0, 0, 0, 0, 0, 0, 0, 0, 0, 0, 0, 0, 0, 0, 0, 0, 0, 0, 0, 0, 0, 0, 0, 0, 0, 0, 0, 0], "sum_hessian": [353.0, 314.0, 39.0, 269.0, 45.0, 14.0, 25.0, 246.0, 23.0, 30.0, 15.0, 8.0, 6.0, 23.0, 2.0, 228.0, 18.0, 3.0, 20.0, 17.0, 13.0, 8.0, 7.0, 4.0, 4.0, 14.0, 9.0, 195.0, 33.0, 5.0, 13.0, 1.0, 2.0, 13.0, 7.0, 6.0, 11.0, 3.0, 10.0, 2.0, 6.0, 2.0, 5.0, 2.0, 2.0, 8.0, 6.0, 4.0, 5.0, 111.0, 84.0, 12.0, 21.0, 3.0, 2.0, 2.0, 11.0, 1.0, 1.0, 11.0, 2.0, 2.0, 5.0, 5.0, 1.0, 8.0, 3.0, 1.0, 2.0, 3.0, 7.0, 1.0, 1.0, 1.0, 5.0, 3.0, 2.0, 1.0, 1.0, 4.0, 4.0, 4.0, 2.0, 3.0, 1.0, 3.0, 2.0], "tree_param": {"num_deleted": "0", "num_feature": "10", "num_nodes": "87", "size_leaf_vector": "1"}}, {"base_weights": [0.1090093, -0.09604314, 7.9800243, -13.71948, 0.023045097, 9.958479, 0.7036235, -1.2565533, -4.917213, 10.401742, -0.22340184, 3.2445939, 0.7226212, 0.33510363, -0.018473053, 12.0707, -0.19214402, -4.8683343, 0.21325332, 5.0329237, 5.9330277, 0.5592145, -6.3085303, 1.1748898, -1.613153, 1.8652949, 0.044103242, -1.1426563, 1.4362439, -0.72392154, -2.4675713, 0.11855119, 2.9048073, -2.4823449, 0.06249084], "categories": [], "categories_nodes": [], "categories_segments": [], "categories_sizes": [], "default_left": [0, 0, 0, 0, 0, 0, 0, 0, 0, 0, 0, 0, 0, 0, 0, 0, 0, 0, 0, 0, 0, 0, 0, 0, 0, 0, 0, 0, 0, 0, 0, 0, 0, 0, 0], "id": 13, "left_children": [1, 3, 5, 7, 9, 11, 13, -1, -1, 15, 17, -1, -1, -1, -1, 19, -1, 21, 23, 25, -1, 27, 29, 31, 33, -1, -1, -1, -1, -1, -1, -1, -1, -1, -1], "loss_changes": [572.1121, 561.6635, 122.55719, 7.725464, 882.20636, 19.230835, 1.017757, 0.0, 0.0, 155.16302, 684.5529, 0.0, 0.0, 0.0, 0.0, 280.09973, 0.0, 230.21307, 544.604, 28.028275, 0.0, 147.52028, 151.88025, 1342.814, 1299.9885, 0.0, 0.0, 0.0, 0.0, 0.0, 0.0, 0.0, 0.0, 0.0, 0.0], "parents": [2147483647, 0, 0, 1, 1, 2, 2, 3, 3, 4, 4, 5, 5, 6, 6, 9, 9, 10, 10, 15, 15, 17, 17, 18, 18, 19, 19, 21, 21, 22, 22, 23, 23, 24, 24], "right_children": [2, 4, 6, 8, 10, 12, 14, -1, -1, 16, 18, -1, -1, -1, -1, 20, -1, 22, 24, 26, -1, 28, 30, 32, 34, -1, -1, -1, -1, -1, -1, -1, -1, -1, -1], "split_conditions": [0.11127556, -0.10063756, 0.01769438, -0.092695475, -0.08116674, 0.038075905, -0.04183994, -1.2565533, -4.917213, -0.005128142, -0.06075604, 3.2445939, 0.7226212, 0.33510363, -0.018473053, -0.045007188, -0.19214402, -0.0442235, 0.011823721, 0.0053830603, 5.9330277, -0.04835926, 0.000778808, 0.0044604456, -0.027712064, 1.8652949, 0.044103242, -1.1426563, 1.4362439, -0.72392154, -2.4675713, 0.11855119, 2.9048073, -2.4823449, 0.06249084], "split_indices": [2, 4, 4, 0, 5, 0, 0, 0, 0, 2, 3, 0, 0, 0, 0, 2, 0, 4, 6, 0, 0, 8, 6, 6, 4, 0, 0, 0, 0, 0, 0, 0, 0, 0, 0], "split_type": [0, 0, 0, 0, 0, 0, 0, 0, 0, 0, 0, 0, 0, 0, 0, 0, 0, 0, 0, 0, 0, 0, 0, 0, 0, 0, 0, 0, 0, 0, 0, 0, 0, 0, 0], "sum_hessian": [353.0, 345.0, 8.0, 2.0, 343.0, 6.0, 2.0, 1.0, 1.0, 7.0, 336.0, 5.0, 1.0, 1.0, 1.0, 6.0, 1.0, 28.0, 308.0, 4.0, 2.0, 6.0, 22.0, 202.0, 106.0, 3.0, 1.0, 3.0, 3.0, 8.0, 14.0, 186.0, 16.0, 22.0, 84.0], "tree_param": {"num_deleted": "0", "num_feature": "10", "num_nodes": "35", "size_leaf_vector": "1"}}, {"base_weights": [0.08609832, -0.6545383, 1.7349153, 0.99783933, -3.2295601, -6.245417, 2.6847038, 0.53470516, 10.382623, -7.7131295, 1.6089083, -11.650804, -0.7200263, 6.393003, 0.36857373, 3.3595102, -1.5230069, 5.3420267, 0.36283493, -16.87232, -3.3056955, 17.662516, -0.29520664, -0.22139741, -4.1057305, 3.3175316, -1.3732734, 14.577014, 2.5188868, -0.7512426, 7.046519, -1.3897525, 5.71012, -3.3199043, 4.799005, 1.068097, -1.3844445, -7.361299, -25.46318, 0.10795544, -7.142758, 1.5503591, 8.366151, 1.7999581, -8.410269, 1.5571077, -0.34514236, -0.748291, 19.768593, -4.86746, 8.752461, 4.094376, -2.387521, -0.21380615, 10.712316, 0.6892706, -1.3040123, -2.527929, 2.1143737, -2.1838331, 0.18624677, -0.19331981, 5.0101347, -2.846119, 1.446721, -9.498381, -1.3737838, 2.1243782, -2.3406963, -0.35912248, 1.0567842, -1.1556258, 1.264458, -5.806181, -0.75559783, -1.3919976, 0.628682, 7.3404474, 3.3345933, 1.6220735, -2.1681194, -0.33765766, 5.260917, 1.6171106, -1.9130288, -1.045368, 1.8624207, -0.49500734, 0.6142273, 4.5643377, 0.34160614], "categories": [], "categories_nodes": [], "categories_segments": [], "categories_sizes": [], "default_left": [0, 0, 0, 0, 0, 0, 0, 0, 0, 0, 0, 0, 0, 0, 0, 0, 0, 0, 0, 0, 0, 0, 0, 0, 0, 0, 0, 0, 0, 0, 0, 0, 0, 0, 0, 0, 0, 0, 0, 0, 0, 0, 0, 0, 0, 0, 0, 0, 0, 0, 0, 0, 0, 0, 0, 0, 0, 0, 0, 0, 0, 0, 0, 0, 0, 0, 0, 0, 0, 0, 0, 0, 0, 0, 0, 0, 0, 0, 0, 0, 0, 0, 0, 0, 0, 0, 0, 0, 0, 0, 0], "id": 14, "left_children": [1, 3, 5, 7, 9, 11, 13, 15, 17, 19, 21, 23, 25, 27, 29, 31, 33, -1, 35, 37, 39, 41, 43, -1, -1, 45, -1, 47, 49, 51, 53, 55, 57, 59, 61, -1, -1, 63, 65, 67, -1, 69, -1, 71, 73, -1, -1, 75, 77, 79, 81, 83, 85, 87, 89, -1, -1, -1, -1, -1, -1, -1, -1, -1, -1, -1, -1, -1, -1, -1, -1, -1, -1, -1, -1, -1, -1, -1, -1, -1, -1, -1, -1, -1, -1, -1, -1, -1, -1, -1, -1], "loss_changes": [433.4312, 1045.6752, 850.52625, 646.4104, 2094.996, 350.01358, 847.9451, 842.1361, 514.2568, 1962.6519, 1441.906, 123.14313, 124.21186, 1168.1029, 468.9341, 688.9192, 970.1728, 0.0, 80.09413, 1119.8838, 2452.2827, 780.47095, 746.241, 0.0, 0.0, 39.44259, 0.0, 969.54297, 1285.7726, 437.92966, 241.82428, 238.95493, 834.7709, 1034.3477, 1241.6647, 0.0, 0.0, 278.84738, 890.53564, 1765.2341, 0.0, 20.472748, 0.0, 493.9555, 531.5364, 0.0, 0.0, 53.993988, 94.02881, 354.241, 1321.2507, 224.36035, 408.24988, 16.368784, 241.28656, 0.0, 0.0, 0.0, 0.0, 0.0, 0.0, 0.0, 0.0, 0.0, 0.0, 0.0, 0.0, 0.0, 0.0, 0.0, 0.0, 0.0, 0.0, 0.0, 0.0, 0.0, 0.0, 0.0, 0.0, 0.0, 0.0, 0.0, 0.0, 0.0, 0.0, 0.0, 0.0, 0.0, 0.0, 0.0, 0.0], "parents": [2147483647, 0, 0, 1, 1, 2, 2, 3, 3, 4, 4, 5, 5, 6, 6, 7, 7, 8, 8, 9, 9, 10, 10, 11, 11, 12, 12, 13, 13, 14, 14, 15, 15, 16, 16, 18, 18, 19, 19, 20, 20, 21, 21, 22, 22, 25, 25, 27, 27, 28, 28, 29, 29, 30, 30, 31, 31, 32, 32, 33, 33, 34, 34, 37, 37, 38, 38, 39, 39, 41, 41, 43, 43, 44, 44, 47, 47, 48, 48, 49, 49, 50, 50, 51, 51, 52, 52, 53, 53, 54, 54], "right_children": [2, 4, 6, 8, 10, 12, 14, 16, 18, 20, 22, 24, 26, 28, 30, 32, 34, -1, 36, 38, 40, 42, 44, -1, -1, 46, -1, 48, 50, 52, 54, 56, 58, 60, 62, -1, -1, 64, 66, 68, -1, 70, -1, 72, 74, -1, -1, 76, 78, 80, 82, 84, 86, 88, 90, -1, -1, -1, -1, -1, -1, -1, -1, -1, -1, -1, -1, -1, -1, -1, -1, -1, -1, -1, -1, -1, -1, -1, -1, -1, -1, -1, -1, -1, -1, -1, -1, -1, -1, -1, -1], "split_conditions": [0.03081083, -0.0010914305, -0.041235074, 0.07762233, 0.0379505, -0.013504018, 0.045340985, -0.023547418, -0.017135115, -0.02135538, -0.0473467, -0.038719688, 0.05068012, -0.023860566, 0.07351515, -0.053629685, -0.0125561245, 5.3420267, 0.0053830603, -0.030942325, 0.03564379, 0.05068012, 0.016280675, -0.22139741, -4.1057305, 0.059871137, -1.3732734, 0.034443367, 0.0025588986, -0.009361912, 0.019632837, -0.06363517, -0.074092604, 0.004949092, 0.009015599, 1.068097, -1.3844445, -0.008361578, 0.025315236, 0.01549073, -7.142758, 0.023545753, 8.366151, 0.0056499788, 0.0072065163, 1.5571077, -0.34514236, -0.032073446, 0.017293394, -0.0442235, -0.00081689376, 0.0852989, 0.07273249, 0.05068012, -0.0018542396, 0.6892706, -1.3040123, -2.527929, 2.1143737, -2.1838331, 0.18624677, -0.19331981, 5.0101347, -2.846119, 1.446721, -9.498381, -1.3737838, 2.1243782, -2.3406963, -0.35912248, 1.0567842, -1.1556258, 1.264458, -5.806181, -0.75559783, -1.3919976, 0.628682, 7.3404474, 3.3345933, 1.6220735, -2.1681194, -0.33765766, 5.260917, 1.6171106, -1.9130288, -1.045368, 1.8624207, -0.49500734, 0.6142273, 4.5643377, 0.34160614], "split_indices": [0, 3, 3, 9, 3, 9, 0, 5, 3, 5, 5, 4, 1, 5, 3, 2, 3, 0, 0, 0, 3, 1, 0, 0, 0, 0, 0, 0, 4, 9, 9, 0, 8, 5, 0, 0, 0, 2, 3, 9, 0, 0, 0, 2, 9, 0, 0, 2, 3, 4, 2, 0, 4, 1, 7, 0, 0, 0, 0, 0, 0, 0, 0, 0, 0, 0, 0, 0, 0, 0, 0, 0, 0, 0, 0, 0, 0, 0, 0, 0, 0, 0, 0, 0, 0, 0, 0, 0, 0, 0, 0], "split_type": [0, 0, 0, 0, 0, 0, 0, 0, 0, 0, 0, 0, 0, 0, 0, 0, 0, 0, 0, 0, 0, 0, 0, 0, 0, 0, 0, 0, 0, 0, 0, 0, 0, 0, 0, 0, 0, 0, 0, 0, 0, 0, 0, 0, 0, 0, 0, 0, 0, 0, 0, 0, 0, 0, 0, 0, 0, 0, 0, 0, 0, 0, 0, 0, 0, 0, 0, 0, 0, 0, 0, 0, 0, 0, 0, 0, 0, 0, 0, 0, 0, 0, 0, 0, 0, 0, 0, 0, 0, 0, 0], "sum_hessian": [353.0, 244.0, 109.0, 149.0, 95.0, 11.0, 98.0, 143.0, 6.0, 49.0, 46.0, 5.0, 6.0, 37.0, 61.0, 60.0, 83.0, 3.0, 3.0, 15.0, 34.0, 4.0, 42.0, 1.0, 4.0, 3.0, 3.0, 11.0, 26.0, 53.0, 8.0, 20.0, 40.0, 65.0, 18.0, 2.0, 1.0, 8.0, 7.0, 30.0, 4.0, 2.0, 2.0, 34.0, 8.0, 2.0, 1.0, 3.0, 8.0, 12.0, 14.0, 13.0, 40.0, 3.0, 5.0, 9.0, 11.0, 3.0, 37.0, 32.0, 33.0, 13.0, 5.0, 7.0, 1.0, 5.0, 2.0, 16.0, 14.0, 1.0, 1.0, 10.0, 24.0, 2.0, 6.0, 1.0, 2.0, 4.0, 4.0, 2.0, 10.0, 7.0, 7.0, 12.0, 1.0, 36.0, 4.0, 2.0, 1.0, 3.0, 2.0], "tree_param": {"num_deleted": "0", "num_feature": "10", "num_nodes": "91", "size_leaf_vector": "1"}}, {"base_weights": [0.07479805, 0.5962457, -1.9063046, 0.2456609, 12.529244, -5.2422523, -1.002392, 0.74934095, -3.3317673, 0.46411058, 4.1631384, 9.031364, -1.577872, 0.27574277, 5.451262, -0.104230635, -9.2402315, 3.6751375, 1.1624542, -3.9915009, 0.6784509, -1.2457823, 1.8366148, -1.3155937, 13.703049, -1.4546735, 6.6740417, -0.58546144, -10.502817, -9.219158, -1.3177732, 3.949872, -2.456498, -0.11293664, -2.3511248, 1.0690324, -0.5748607, 0.15368338, -3.487508, -2.0977192, 5.033843, -1.7473278, -0.10227828, 2.9390063, -0.40408403, -3.3495958, -0.6810448, -0.45317844, -4.617359, -2.189319, 1.4315991, -0.32426244, 1.9665955, -2.3824031, 0.9821993], "categories": [], "categories_nodes": [], "categories_segments": [], "categories_sizes": [], "default_left": [0, 0, 0, 0, 0, 0, 0, 0, 0, 0, 0, 0, 0, 0, 0, 0, 0, 0, 0, 0, 0, 0, 0, 0, 0, 0, 0, 0, 0, 0, 0, 0, 0, 0, 0, 0, 0, 0, 0, 0, 0, 0, 0, 0, 0, 0, 0, 0, 0, 0, 0, 0, 0, 0, 0], "id": 15, "left_children": [1, 3, 5, 7, 9, -1, 11, 13, 15, -1, -1, 17, 19, 21, 23, 25, 27, -1, -1, 29, 31, 33, 35, 37, 39, 41, 43, -1, 45, 47, 49, 51, 53, -1, -1, -1, -1, -1, -1, -1, -1, -1, -1, -1, -1, -1, -1, -1, -1, -1, -1, -1, -1, -1, -1], "loss_changes": [366.83325, 1172.4934, 1023.8114, 496.21155, 96.95337, 0.0, 424.22034, 535.1609, 647.40967, 0.0, 0.0, 18.928589, 373.031, 524.7674, 1246.4778, 220.24295, 89.93445, 0.0, 0.0, 449.1032, 378.9094, 638.8091, 713.1987, 250.93141, 754.0093, 95.350174, 113.382416, 0.0, 29.19458, 500.1032, 872.40546, 243.01758, 623.18677, 0.0, 0.0, 0.0, 0.0, 0.0, 0.0, 0.0, 0.0, 0.0, 0.0, 0.0, 0.0, 0.0, 0.0, 0.0, 0.0, 0.0, 0.0, 0.0, 0.0, 0.0, 0.0], "parents": [2147483647, 0, 0, 1, 1, 2, 2, 3, 3, 4, 4, 6, 6, 7, 7, 8, 8, 11, 11, 12, 12, 13, 13, 14, 14, 15, 15, 16, 16, 19, 19, 20, 20, 21, 21, 22, 22, 23, 23, 24, 24, 25, 25, 26, 26, 28, 28, 29, 29, 30, 30, 31, 31, 32, 32], "right_children": [2, 4, 6, 8, 10, -1, 12, 14, 16, -1, -1, 18, 20, 22, 24, 26, 28, -1, -1, 30, 32, 34, 36, 38, 40, 42, 44, -1, 46, 48, 50, 52, 54, -1, -1, -1, -1, -1, -1, -1, -1, -1, -1, -1, -1, -1, -1, -1, -1, -1, -1, -1, -1, -1, -1], "split_conditions": [0.03751653, 0.03219301, 0.038455978, 0.06336665, -0.0015689598, -5.2422523, -0.037462503, 0.04495846, -0.0072837663, 0.46411058, 4.1631384, -0.005514555, 0.01549073, -0.0072837663, -0.03207709, 0.012679974, -0.016704442, 3.6751375, 1.1624542, -0.017135115, -0.0010914305, -0.0115950145, 0.039542492, 0.059871137, -0.054707497, -0.08806194, 0.048973523, -0.58546144, 0.05068012, 0.009961227, 0.008883415, 0.057244886, 0.036060333, -0.11293664, -2.3511248, 1.0690324, -0.5748607, 0.15368338, -3.487508, -2.0977192, 5.033843, -1.7473278, -0.10227828, 2.9390063, -0.40408403, -3.3495958, -0.6810448, -0.45317844, -4.617359, -2.189319, 1.4315991, -0.32426244, 1.9665955, -2.3824031, 0.9821993], "split_indices": [5, 5, 5, 6, 4, 0, 2, 6, 2, 0, 0, 0, 9, 2, 3, 3, 4, 0, 0, 3, 3, 2, 8, 0, 2, 9, 0, 0, 1, 2, 2, 5, 8, 0, 0, 0, 0, 0, 0, 0, 0, 0, 0, 0, 0, 0, 0, 0, 0, 0, 0, 0, 0, 0, 0], "split_type": [0, 0, 0, 0, 0, 0, 0, 0, 0, 0, 0, 0, 0, 0, 0, 0, 0, 0, 0, 0, 0, 0, 0, 0, 0, 0, 0, 0, 0, 0, 0, 0, 0, 0, 0, 0, 0, 0, 0, 0, 0, 0, 0, 0, 0, 0, 0, 0, 0, 0, 0, 0, 0, 0, 0], "sum_hessian": [353.0, 280.0, 73.0, 273.0, 7.0, 3.0, 70.0, 240.0, 33.0, 1.0, 6.0, 3.0, 67.0, 219.0, 21.0, 22.0, 11.0, 1.0, 2.0, 32.0, 35.0, 111.0, 108.0, 12.0, 9.0, 19.0, 3.0, 2.0, 9.0, 10.0, 22.0, 17.0, 18.0, 99.0, 12.0, 74.0, 34.0, 11.0, 1.0, 1.0, 8.0, 3.0, 16.0, 2.0, 1.0, 8.0, 1.0, 5.0, 5.0, 11.0, 11.0, 6.0, 11.0, 9.0, 9.0], "tree_param": {"num_deleted": "0", "num_feature": "10", "num_nodes": "55", "size_leaf_vector": "1"}}, {"base_weights": [0.030714832, 2.5686986, -0.3951664, 7.928621, 1.0680196, 1.0371557, -1.1343024, 13.69704, 2.6756613, -2.7108936, 3.5949597, -1.631875, 4.1850224, -9.185199, -0.528734, 0.7227997, 4.77499, 1.8299406, -1.1769379, -11.668161, 0.9427396, -3.3291888, 5.9567533, 1.89512, -9.378983, -4.2337933, 6.236385, -1.8672581, -11.01125, 3.7142808, -0.73411185, 1.0481725, -4.8996468, 5.1223927, -4.7872543, 1.492836, -5.5427604, 3.927528, 4.641034, -0.5222123, 8.315561, 6.495407, -15.984163, -6.6075697, 0.9787636, 10.220863, 1.0200013, -1.0458695, 0.44844934, -3.6141007, -0.09805985, -2.4113603, 0.6707923, 0.16405793, 2.3275023, -1.8114358, 0.22006074, -2.134451, -0.47972187, 1.6536658, -0.7802319, -0.99022347, 1.6094781, 0.34752962, 4.2260294, 3.407222, -0.6457184, -7.687901, -2.655415, -0.021263123, -2.7624214, 0.7635781, -0.5581089, 4.2975955, -0.93357164, -2.791229, 1.1115282, 0.025917718, -2.1712759, -0.74102134, 0.7722824], "categories": [], "categories_nodes": [], "categories_segments": [], "categories_sizes": [], "default_left": [0, 0, 0, 0, 0, 0, 0, 0, 0, 0, 0, 0, 0, 0, 0, 0, 0, 0, 0, 0, 0, 0, 0, 0, 0, 0, 0, 0, 0, 0, 0, 0, 0, 0, 0, 0, 0, 0, 0, 0, 0, 0, 0, 0, 0, 0, 0, 0, 0, 0, 0, 0, 0, 0, 0, 0, 0, 0, 0, 0, 0, 0, 0, 0, 0, 0, 0, 0, 0, 0, 0, 0, 0, 0, 0, 0, 0, 0, 0, 0, 0], "id": 16, "left_children": [1, 3, 5, 7, 9, 11, 13, 15, 17, 19, 21, 23, 25, 27, 29, -1, -1, -1, -1, 31, 33, 35, 37, 39, 41, 43, 45, 47, 49, -1, 51, -1, -1, 53, 55, -1, 57, 59, -1, 61, 63, 65, 67, 69, 71, 73, 75, -1, -1, -1, -1, 77, 79, -1, -1, -1, -1, -1, -1, -1, -1, -1, -1, -1, -1, -1, -1, -1, -1, -1, -1, -1, -1, -1, -1, -1, -1, -1, -1, -1, -1], "loss_changes": [383.64645, 401.7517, 323.01544, 296.6654, 401.25812, 880.6118, 975.0925, 86.92212, 182.09653, 567.3516, 428.66638, 1575.2427, 855.36554, 166.52026, 507.54465, 0.0, 0.0, 0.0, 0.0, 410.6421, 335.86423, 156.27222, 306.031, 625.1561, 1991.1816, 130.2017, 800.17285, 26.98386, 117.79224, 0.0, 439.90295, 0.0, 0.0, 92.2442, 45.86377, 0.0, 25.821503, 190.20682, 0.0, 508.43643, 438.03906, 276.7193, 667.2529, 118.338104, 22.525036, 1248.5017, 533.4534, 0.0, 0.0, 0.0, 0.0, 1025.2761, 616.1736, 0.0, 0.0, 0.0, 0.0, 0.0, 0.0, 0.0, 0.0, 0.0, 0.0, 0.0, 0.0, 0.0, 0.0, 0.0, 0.0, 0.0, 0.0, 0.0, 0.0, 0.0, 0.0, 0.0, 0.0, 0.0, 0.0, 0.0, 0.0], "parents": [2147483647, 0, 0, 1, 1, 2, 2, 3, 3, 4, 4, 5, 5, 6, 6, 7, 7, 8, 8, 9, 9, 10, 10, 11, 11, 12, 12, 13, 13, 14, 14, 19, 19, 20, 20, 21, 21, 22, 22, 23, 23, 24, 24, 25, 25, 26, 26, 27, 27, 28, 28, 30, 30, 33, 33, 34, 34, 36, 36, 37, 37, 39, 39, 40, 40, 41, 41, 42, 42, 43, 43, 44, 44, 45, 45, 46, 46, 51, 51, 52, 52], "right_children": [2, 4, 6, 8, 10, 12, 14, 16, 18, 20, 22, 24, 26, 28, 30, -1, -1, -1, -1, 32, 34, 36, 38, 40, 42, 44, 46, 48, 50, -1, 52, -1, -1, 54, 56, -1, 58, 60, -1, 62, 64, 66, 68, 70, 72, 74, 76, -1, -1, -1, -1, 78, 80, -1, -1, -1, -1, -1, -1, -1, -1, -1, -1, -1, -1, -1, -1, -1, -1, -1, -1, -1, -1, -1, -1, -1, -1, -1, -1, -1, -1], "split_conditions": [-0.043400846, 0.05068012, -0.023860566, 0.01549073, 0.009015599, -0.009361912, -0.01916334, -0.053870335, -0.022884678, 0.03799897, -0.006205954, -0.018061887, -0.053629685, -0.023547418, -0.08906294, 0.7227997, 4.77499, 1.8299406, -1.1769379, -0.05686312, 0.0056499788, 0.038075905, 0.05260606, -0.036386505, -0.034574863, -0.042962622, 0.023774944, -0.0018820165, -0.0018542396, 3.7142808, -0.006584468, 1.0481725, -4.8996468, -0.03665608, 0.07762233, 1.492836, 0.07076875, 0.048973523, 4.641034, -0.029526427, -0.050782982, -0.006584468, 0.0053830603, -0.07615636, 0.05068012, 0.045340985, 0.001750522, -1.0458695, 0.44844934, -3.6141007, -0.09805985, -0.021311019, -0.0125561245, 0.16405793, 2.3275023, -1.8114358, 0.22006074, -2.134451, -0.47972187, 1.6536658, -0.7802319, -0.99022347, 1.6094781, 0.34752962, 4.2260294, 3.407222, -0.6457184, -7.687901, -2.655415, -0.021263123, -2.7624214, 0.7635781, -0.5581089, 4.2975955, -0.93357164, -2.791229, 1.1115282, 0.025917718, -2.1712759, -0.74102134, 0.7722824], "split_indices": [6, 1, 5, 9, 0, 9, 5, 3, 3, 7, 2, 2, 2, 5, 0, 0, 0, 0, 0, 2, 2, 0, 0, 5, 0, 5, 9, 0, 7, 0, 6, 0, 0, 3, 9, 0, 0, 0, 0, 8, 9, 6, 0, 5, 1, 0, 0, 0, 0, 0, 0, 6, 3, 0, 0, 0, 0, 0, 0, 0, 0, 0, 0, 0, 0, 0, 0, 0, 0, 0, 0, 0, 0, 0, 0, 0, 0, 0, 0, 0, 0], "split_type": [0, 0, 0, 0, 0, 0, 0, 0, 0, 0, 0, 0, 0, 0, 0, 0, 0, 0, 0, 0, 0, 0, 0, 0, 0, 0, 0, 0, 0, 0, 0, 0, 0, 0, 0, 0, 0, 0, 0, 0, 0, 0, 0, 0, 0, 0, 0, 0, 0, 0, 0, 0, 0, 0, 0, 0, 0, 0, 0, 0, 0, 0, 0, 0, 0, 0, 0, 0, 0, 0, 0, 0, 0, 0, 0, 0, 0, 0, 0, 0, 0], "sum_hessian": [353.0, 50.0, 303.0, 10.0, 40.0, 103.0, 200.0, 4.0, 6.0, 16.0, 24.0, 56.0, 47.0, 13.0, 187.0, 1.0, 3.0, 4.0, 2.0, 4.0, 12.0, 6.0, 18.0, 39.0, 17.0, 9.0, 38.0, 3.0, 10.0, 2.0, 185.0, 1.0, 3.0, 7.0, 5.0, 1.0, 5.0, 16.0, 2.0, 29.0, 10.0, 5.0, 12.0, 6.0, 3.0, 21.0, 17.0, 2.0, 1.0, 9.0, 1.0, 84.0, 101.0, 3.0, 4.0, 4.0, 1.0, 3.0, 2.0, 13.0, 3.0, 20.0, 9.0, 5.0, 5.0, 3.0, 2.0, 4.0, 8.0, 2.0, 4.0, 2.0, 1.0, 16.0, 5.0, 3.0, 14.0, 56.0, 28.0, 38.0, 63.0], "tree_param": {"num_deleted": "0", "num_feature": "10", "num_nodes": "81", "size_leaf_vector": "1"}}, {"base_weights": [0.02602089, 1.9469646, -0.2963283, 6.1092014, 0.78278, -0.41724613, 7.018008, 8.780722, -0.7611389, -2.0712316, 2.6921966, -0.24002025, -13.471958, -0.24255525, 2.7530308, 1.3637581, 4.2970614, -0.9415497, 0.9556412, -8.938008, 0.7291618, 1.0345255, 9.115976, 0.2004037, -2.0200422, -5.5538435, 0.24759065, 0.8909466, -3.7972264, 3.8971195, -3.616309, 4.1748095, -3.6163874, 0.38180467, 3.227589, -0.5907061, 4.400503, -4.004104, -1.3884466, 0.007670975, 1.8644806, -1.9068459, -0.1972046, 0.758767, 3.5882769, 0.87954026, -1.4404159, -0.010746899, -2.4118307, 3.8560205, 0.62314755, 2.1975954, -0.60245967], "categories": [], "categories_nodes": [], "categories_segments": [], "categories_sizes": [], "default_left": [0, 0, 0, 0, 0, 0, 0, 0, 0, 0, 0, 0, 0, 0, 0, 0, 0, 0, 0, 0, 0, 0, 0, 0, 0, 0, 0, 0, 0, 0, 0, 0, 0, 0, 0, 0, 0, 0, 0, 0, 0, 0, 0, 0, 0, 0, 0, 0, 0, 0, 0, 0, 0], "id": 17, "left_children": [1, 3, 5, 7, 9, 11, 13, 15, 17, 19, 21, 23, 25, -1, -1, -1, -1, -1, -1, 27, 29, 31, 33, 35, 37, -1, -1, -1, -1, 39, 41, 43, 45, -1, -1, 47, 49, -1, 51, -1, -1, -1, -1, -1, -1, -1, -1, -1, -1, -1, -1, -1, -1], "loss_changes": [219.77893, 242.34407, 271.79614, 208.58014, 229.00552, 690.8564, 91.89758, 122.67163, 47.52764, 333.42175, 256.7821, 233.24222, 303.56042, 0.0, 0.0, 0.0, 0.0, 0.0, 0.0, 259.04102, 193.05466, 321.80664, 50.726746, 796.7343, 403.5583, 0.0, 0.0, 0.0, 0.0, 71.62939, 44.464333, 136.31354, 83.91306, 0.0, 0.0, 834.6132, 719.5832, 0.0, 322.53195, 0.0, 0.0, 0.0, 0.0, 0.0, 0.0, 0.0, 0.0, 0.0, 0.0, 0.0, 0.0, 0.0, 0.0], "parents": [2147483647, 0, 0, 1, 1, 2, 2, 3, 3, 4, 4, 5, 5, 6, 6, 7, 7, 8, 8, 9, 9, 10, 10, 11, 11, 12, 12, 19, 19, 20, 20, 21, 21, 22, 22, 23, 23, 24, 24, 29, 29, 30, 30, 31, 31, 32, 32, 35, 35, 36, 36, 38, 38], "right_children": [2, 4, 6, 8, 10, 12, 14, 16, 18, 20, 22, 24, 26, -1, -1, -1, -1, -1, -1, 28, 30, 32, 34, 36, 38, -1, -1, -1, -1, 40, 42, 44, 46, -1, -1, 48, 50, -1, 52, -1, -1, -1, -1, -1, -1, -1, -1, -1, -1, -1, -1, -1, -1], "split_conditions": [-0.043400846, 0.05068012, 0.10635074, 0.029894229, 0.009015599, 0.085530706, -0.049105015, -0.05444576, 0.034443367, 0.03799897, -0.05076412, 0.03751653, 0.061696205, -0.24255525, 2.7530308, 1.3637581, 4.2970614, -0.9415497, 0.9556412, -0.05686312, 0.0056499788, 0.048627585, -0.03207709, 0.01747503, 0.038455978, -5.5538435, 0.24759065, 0.8909466, -3.7972264, 0.0072065163, 0.035828717, 0.04448548, 0.016280675, 0.38180467, 3.227589, 0.010898912, 0.00806271, -4.004104, -0.037462503, 0.007670975, 1.8644806, -1.9068459, -0.1972046, 0.758767, 3.5882769, 0.87954026, -1.4404159, -0.010746899, -2.4118307, 3.8560205, 0.62314755, 2.1975954, -0.60245967], "split_indices": [6, 1, 8, 3, 0, 8, 0, 6, 0, 7, 6, 5, 2, 0, 0, 0, 0, 0, 0, 2, 2, 9, 3, 5, 5, 0, 0, 0, 0, 9, 2, 9, 0, 0, 0, 5, 4, 0, 2, 0, 0, 0, 0, 0, 0, 0, 0, 0, 0, 0, 0, 0, 0], "split_type": [0, 0, 0, 0, 0, 0, 0, 0, 0, 0, 0, 0, 0, 0, 0, 0, 0, 0, 0, 0, 0, 0, 0, 0, 0, 0, 0, 0, 0, 0, 0, 0, 0, 0, 0, 0, 0, 0, 0, 0, 0, 0, 0, 0, 0, 0, 0, 0, 0, 0, 0, 0, 0], "sum_hessian": [353.0, 50.0, 303.0, 10.0, 40.0, 299.0, 4.0, 7.0, 3.0, 16.0, 24.0, 296.0, 3.0, 1.0, 3.0, 5.0, 2.0, 2.0, 1.0, 4.0, 12.0, 20.0, 4.0, 238.0, 58.0, 2.0, 1.0, 1.0, 3.0, 7.0, 5.0, 12.0, 8.0, 1.0, 3.0, 201.0, 37.0, 2.0, 56.0, 3.0, 4.0, 2.0, 3.0, 11.0, 1.0, 1.0, 7.0, 188.0, 13.0, 7.0, 30.0, 3.0, 53.0], "tree_param": {"num_deleted": "0", "num_feature": "10", "num_nodes": "53", "size_leaf_vector": "1"}}, {"base_weights": [0.037378192, -3.5755024, 0.20778736, 1.3173273, -6.642933, 1.2169948, -0.5347312, 3.4569664, -0.34549314, -3.6199226, -1.016215, 0.5441582, 5.361373, -2.6148221, 0.64162743, 1.4067414, -0.03593216, 1.4805222, -1.2019379, 1.5552107, -4.260097, 8.760831, -4.030833, -4.1321993, 0.5288823, 8.137859, 0.19900036, 0.22005971, 0.78928643, -0.83631366, 4.2566423, -13.580149, 0.08368158, 0.022841861, 14.583618, 0.3313675, -2.5510468, -5.755862, 2.613308, 4.9019966, -3.5485218, 7.3764195, -3.3598351, -2.7087538, 1.6867368, 0.6482563, -0.54922944, 0.15031418, -2.676933, 2.9031126, 0.23914532, -4.8747063, 0.36496127, -4.168645, 0.9219719, 0.7516377, -0.7396457, 5.9212685, 1.9538857, 0.28492433, -0.22856599, -0.63259786, -3.2600777, 2.1999383, -0.5266278, 2.6311917, -0.12852556, 0.57798666, -3.808223, -2.2183194, 0.5384018, 0.42614648, -2.1346447, 4.075734, 0.21369709], "categories": [], "categories_nodes": [], "categories_segments": [], "categories_sizes": [], "default_left": [0, 0, 0, 0, 0, 0, 0, 0, 0, 0, 0, 0, 0, 0, 0, 0, 0, 0, 0, 0, 0, 0, 0, 0, 0, 0, 0, 0, 0, 0, 0, 0, 0, 0, 0, 0, 0, 0, 0, 0, 0, 0, 0, 0, 0, 0, 0, 0, 0, 0, 0, 0, 0, 0, 0, 0, 0, 0, 0, 0, 0, 0, 0, 0, 0, 0, 0, 0, 0, 0, 0, 0, 0, 0, 0], "id": 18, "left_children": [1, 3, 5, 7, 9, 11, 13, 15, -1, -1, 17, 19, 21, 23, 25, -1, -1, 27, -1, 29, 31, 33, 35, 37, 39, 41, 43, 45, -1, 47, 49, 51, 53, 55, 57, 59, -1, 61, 63, 65, 67, -1, 69, 71, 73, -1, -1, -1, -1, -1, -1, -1, -1, -1, -1, -1, -1, -1, -1, -1, -1, -1, -1, -1, -1, -1, -1, -1, -1, -1, -1, -1, -1, -1, -1], "loss_changes": [218.68942, 248.88556, 254.6822, 40.960144, 292.90155, 398.62494, 481.2766, 18.19027, 0.0, 0.0, 50.726784, 613.7946, 673.8817, 340.8685, 416.453, 0.0, 0.0, 5.221341, 0.0, 675.45605, 891.7898, 762.85864, 119.881516, 540.75867, 445.33774, 1406.5879, 523.6856, 15.896704, 0.0, 610.109, 911.12555, 296.20056, 711.3684, 49.42012, 245.81213, 3.427787, 0.0, 704.08765, 219.06906, 251.21509, 675.4087, 0.0, 117.25145, 756.1618, 917.88947, 0.0, 0.0, 0.0, 0.0, 0.0, 0.0, 0.0, 0.0, 0.0, 0.0, 0.0, 0.0, 0.0, 0.0, 0.0, 0.0, 0.0, 0.0, 0.0, 0.0, 0.0, 0.0, 0.0, 0.0, 0.0, 0.0, 0.0, 0.0, 0.0, 0.0], "parents": [2147483647, 0, 0, 1, 1, 2, 2, 3, 3, 4, 4, 5, 5, 6, 6, 7, 7, 10, 10, 11, 11, 12, 12, 13, 13, 14, 14, 17, 17, 19, 19, 20, 20, 21, 21, 22, 22, 23, 23, 24, 24, 25, 25, 26, 26, 27, 27, 29, 29, 30, 30, 31, 31, 32, 32, 33, 33, 34, 34, 35, 35, 37, 37, 38, 38, 39, 39, 40, 40, 42, 42, 43, 43, 44, 44], "right_children": [2, 4, 6, 8, 10, 12, 14, 16, -1, -1, 18, 20, 22, 24, 26, -1, -1, 28, -1, 30, 32, 34, 36, 38, 40, 42, 44, 46, -1, 48, 50, 52, 54, 56, 58, 60, -1, 62, 64, 66, 68, -1, 70, 72, 74, -1, -1, -1, -1, -1, -1, -1, -1, -1, -1, -1, -1, -1, -1, -1, -1, -1, -1, -1, -1, -1, -1, -1, -1, -1, -1, -1, -1, -1, -1], "split_conditions": [-0.07213275, -0.054925088, -0.0010776975, 0.05068012, 0.022868635, -0.009361912, 0.019632837, -0.049105015, -0.34549314, -3.6199226, -0.009824677, 0.023972783, 0.013566522, 0.018583724, -0.051103264, 1.4067414, -0.03593216, 0.027178291, -1.2019379, -0.028840007, -0.033881318, -0.020044709, 0.01482098, 0.042340983, 0.03151747, 0.023774944, 0.013316905, -0.023677247, 0.78928643, 0.00027247815, -0.010517202, 0.04768465, -0.03665608, 0.0044604456, 0.012648137, 0.009015599, -2.5510468, -0.009918765, 0.05759701, 0.011543833, -0.013947743, 7.3764195, -0.013750639, 0.008100982, 0.015568459, 0.6482563, -0.54922944, 0.15031418, -2.676933, 2.9031126, 0.23914532, -4.8747063, 0.36496127, -4.168645, 0.9219719, 0.7516377, -0.7396457, 5.9212685, 1.9538857, 0.28492433, -0.22856599, -0.63259786, -3.2600777, 2.1999383, -0.5266278, 2.6311917, -0.12852556, 0.57798666, -3.808223, -2.2183194, 0.5384018, 0.42614648, -2.1346447, 4.075734, 0.21369709], "split_indices": [8, 9, 9, 1, 6, 9, 9, 0, 0, 0, 4, 2, 4, 2, 4, 0, 0, 0, 0, 2, 5, 0, 8, 8, 2, 9, 8, 0, 0, 8, 2, 2, 3, 6, 0, 0, 0, 8, 4, 3, 6, 0, 2, 3, 8, 0, 0, 0, 0, 0, 0, 0, 0, 0, 0, 0, 0, 0, 0, 0, 0, 0, 0, 0, 0, 0, 0, 0, 0, 0, 0, 0, 0, 0, 0], "split_type": [0, 0, 0, 0, 0, 0, 0, 0, 0, 0, 0, 0, 0, 0, 0, 0, 0, 0, 0, 0, 0, 0, 0, 0, 0, 0, 0, 0, 0, 0, 0, 0, 0, 0, 0, 0, 0, 0, 0, 0, 0, 0, 0, 0, 0, 0, 0, 0, 0, 0, 0, 0, 0, 0, 0, 0, 0, 0, 0, 0, 0, 0, 0, 0, 0, 0, 0, 0, 0, 0, 0, 0, 0, 0, 0], "sum_hessian": [353.0, 15.0, 338.0, 6.0, 9.0, 143.0, 195.0, 3.0, 3.0, 4.0, 5.0, 124.0, 19.0, 70.0, 125.0, 2.0, 1.0, 3.0, 2.0, 103.0, 21.0, 14.0, 5.0, 47.0, 23.0, 6.0, 119.0, 2.0, 1.0, 55.0, 48.0, 6.0, 15.0, 6.0, 8.0, 3.0, 2.0, 38.0, 9.0, 11.0, 12.0, 2.0, 4.0, 40.0, 79.0, 1.0, 1.0, 48.0, 7.0, 18.0, 30.0, 5.0, 1.0, 2.0, 13.0, 3.0, 3.0, 4.0, 4.0, 2.0, 1.0, 23.0, 15.0, 4.0, 5.0, 6.0, 5.0, 8.0, 4.0, 2.0, 2.0, 21.0, 19.0, 5.0, 74.0], "tree_param": {"num_deleted": "0", "num_feature": "10", "num_nodes": "75", "size_leaf_vector": "1"}}, {"base_weights": [0.02806905, -0.50088394, 1.3766185, 0.4883656, -1.9187486, 3.7687852, -0.4206193, 2.4223862, -0.81343246, -2.8863723, 1.132353, -1.1779109, 6.197463, -5.4808445, 0.49863356, -1.4997716, 5.7957253, 2.313953, -2.6327026, -3.367108, 10.574885, 5.0989947, -0.8978653, 1.1665814, -3.3737898, -4.192563, 7.5575647, -9.972994, -1.5726038, 3.3751867, -0.9543087, -3.2955387, 7.7790174, 19.430464, 3.2450557, -0.5711156, 13.523662, -9.104122, -0.9244104, -2.2083251, -7.3951936, 4.574119, 0.18457948, -6.1234627, 1.6140549, -6.293283, 0.10800171, -0.077120595, -1.6256115, -0.075635634, 9.851307, -0.84652406, -3.4248483, 1.1282196, -0.9615212, 9.802353, 0.64356995, -2.2949984, 5.6847434, 0.2912471, -1.4081721, 3.9976525, 0.91830546, 7.6926312, -0.8124138, 1.5341643, -1.0076847, 1.0036064, -1.115266, 6.115998, 0.9839253, -3.677963, 1.3349304, 1.6575532, -0.5471311, -2.0202568, -0.1861859, 0.3703333, -3.0436273, -2.1984572, 0.34644473, 1.1817914, -0.6811465, 0.23545533, -2.359764, 0.57436067, -0.38216975, 1.0612321, -0.6685062, 0.15272552, 3.6465135, 0.6039608, -0.096261986, 0.2940079, 3.5288785, -0.8406758, 1.1992363, 0.07792041, -1.7807546, -0.09405824, 2.6286783], "categories": [], "categories_nodes": [], "categories_segments": [], "categories_sizes": [], "default_left": [0, 0, 0, 0, 0, 0, 0, 0, 0, 0, 0, 0, 0, 0, 0, 0, 0, 0, 0, 0, 0, 0, 0, 0, 0, 0, 0, 0, 0, 0, 0, 0, 0, 0, 0, 0, 0, 0, 0, 0, 0, 0, 0, 0, 0, 0, 0, 0, 0, 0, 0, 0, 0, 0, 0, 0, 0, 0, 0, 0, 0, 0, 0, 0, 0, 0, 0, 0, 0, 0, 0, 0, 0, 0, 0, 0, 0, 0, 0, 0, 0, 0, 0, 0, 0, 0, 0, 0, 0, 0, 0, 0, 0, 0, 0, 0, 0, 0, 0, 0, 0], "id": 19, "left_children": [1, 3, 5, 7, 9, 11, 13, 15, 17, 19, 21, 23, 25, 27, 29, 31, 33, 35, 37, 39, 41, -1, 43, -1, 45, 47, 49, 51, 53, 55, 57, 59, 61, 63, 65, 67, 69, 71, 73, 75, 77, -1, -1, 79, 81, 83, 85, -1, -1, 87, 89, -1, -1, 91, -1, 93, 95, 97, 99, -1, -1, -1, -1, -1, -1, -1, -1, -1, -1, -1, -1, -1, -1, -1, -1, -1, -1, -1, -1, -1, -1, -1, -1, -1, -1, -1, -1, -1, -1, -1, -1, -1, -1, -1, -1, -1, -1, -1, -1, -1, -1], "loss_changes": [253.20453, 358.60565, 431.51453, 382.1438, 313.26178, 523.8991, 272.52725, 815.7691, 523.8418, 553.31165, 852.6682, 180.00116, 441.49878, 142.32407, 212.19424, 508.84982, 1084.6115, 1107.3099, 632.77844, 347.7478, 130.21835, 0.0, 324.91443, 0.0, 112.49541, 17.90892, 455.9685, 9.068237, 30.07005, 292.15292, 315.6774, 153.7056, 90.05209, 757.0222, 375.0874, 357.47855, 425.2644, 567.8266, 282.70016, 441.3364, 415.9934, 0.0, 0.0, 78.609436, 162.49721, 72.95987, 17.417627, 0.0, 0.0, 62.328205, 424.2527, 0.0, 0.0, 4.493251, 0.0, 74.95618, 161.44144, 271.28235, 113.50589, 0.0, 0.0, 0.0, 0.0, 0.0, 0.0, 0.0, 0.0, 0.0, 0.0, 0.0, 0.0, 0.0, 0.0, 0.0, 0.0, 0.0, 0.0, 0.0, 0.0, 0.0, 0.0, 0.0, 0.0, 0.0, 0.0, 0.0, 0.0, 0.0, 0.0, 0.0, 0.0, 0.0, 0.0, 0.0, 0.0, 0.0, 0.0, 0.0, 0.0, 0.0, 0.0], "parents": [2147483647, 0, 0, 1, 1, 2, 2, 3, 3, 4, 4, 5, 5, 6, 6, 7, 7, 8, 8, 9, 9, 10, 10, 11, 11, 12, 12, 13, 13, 14, 14, 15, 15, 16, 16, 17, 17, 18, 18, 19, 19, 20, 20, 22, 22, 24, 24, 25, 25, 26, 26, 27, 27, 28, 28, 29, 29, 30, 30, 31, 31, 32, 32, 33, 33, 34, 34, 35, 35, 36, 36, 37, 37, 38, 38, 39, 39, 40, 40, 43, 43, 44, 44, 45, 45, 46, 46, 49, 49, 50, 50, 53, 53, 55, 55, 56, 56, 57, 57, 58, 58], "right_children": [2, 4, 6, 8, 10, 12, 14, 16, 18, 20, 22, 24, 26, 28, 30, 32, 34, 36, 38, 40, 42, -1, 44, -1, 46, 48, 50, 52, 54, 56, 58, 60, 62, 64, 66, 68, 70, 72, 74, 76, 78, -1, -1, 80, 82, 84, 86, -1, -1, 88, 90, -1, -1, 92, -1, 94, 96, 98, 100, -1, -1, -1, -1, -1, -1, -1, -1, -1, -1, -1, -1, -1, -1, -1, -1, -1, -1, -1, -1, -1, -1, -1, -1, -1, -1, -1, -1, -1, -1, -1, -1, -1, -1, -1, -1, -1, -1, -1, -1, -1, -1], "split_conditions": [0.034443367, 0.05068012, 0.048973523, -0.026327528, 0.0379505, -0.026833475, -0.03665608, -0.029526427, -0.023646863, 0.09833287, -0.051103264, -0.06549067, -0.056177046, -0.022208253, -0.00405033, -0.03665608, -0.01919845, -0.03198764, -0.014959694, 0.011543833, -0.005128142, 5.0989947, 0.009433659, 1.1665814, 0.009961227, -0.030995632, -0.034214552, 0.0562386, -0.035816193, -0.0045342813, 0.07351515, -0.06548562, -0.05147406, -0.0115950145, 0.05954058, 0.022868635, -0.0029449128, 0.067085266, -0.004221514, -0.049105015, -0.049105015, 4.574119, 0.18457948, 0.07355214, 0.07762233, -0.037462503, 0.041708443, -0.077120595, -1.6256115, 0.013566522, -0.030995632, -0.84652406, -3.4248483, 0.059871137, -0.9615212, 0.059871137, -0.004221514, 0.031192603, -0.017646125, 0.2912471, -1.4081721, 3.9976525, 0.91830546, 7.6926312, -0.8124138, 1.5341643, -1.0076847, 1.0036064, -1.115266, 6.115998, 0.9839253, -3.677963, 1.3349304, 1.6575532, -0.5471311, -2.0202568, -0.1861859, 0.3703333, -3.0436273, -2.1984572, 0.34644473, 1.1817914, -0.6811465, 0.23545533, -2.359764, 0.57436067, -0.38216975, 1.0612321, -0.6685062, 0.15272552, 3.6465135, 0.6039608, -0.096261986, 0.2940079, 3.5288785, -0.8406758, 1.1992363, 0.07792041, -1.7807546, -0.09405824, 2.6286783], "split_indices": [0, 1, 0, 3, 3, 6, 3, 8, 8, 9, 4, 6, 3, 4, 2, 3, 8, 8, 8, 3, 2, 0, 8, 0, 2, 2, 9, 0, 8, 3, 3, 2, 2, 2, 2, 6, 4, 2, 8, 0, 0, 0, 0, 2, 9, 2, 0, 0, 0, 4, 2, 0, 0, 0, 0, 0, 8, 8, 9, 0, 0, 0, 0, 0, 0, 0, 0, 0, 0, 0, 0, 0, 0, 0, 0, 0, 0, 0, 0, 0, 0, 0, 0, 0, 0, 0, 0, 0, 0, 0, 0, 0, 0, 0, 0, 0, 0, 0, 0, 0, 0], "split_type": [0, 0, 0, 0, 0, 0, 0, 0, 0, 0, 0, 0, 0, 0, 0, 0, 0, 0, 0, 0, 0, 0, 0, 0, 0, 0, 0, 0, 0, 0, 0, 0, 0, 0, 0, 0, 0, 0, 0, 0, 0, 0, 0, 0, 0, 0, 0, 0, 0, 0, 0, 0, 0, 0, 0, 0, 0, 0, 0, 0, 0, 0, 0, 0, 0, 0, 0, 0, 0, 0, 0, 0, 0, 0, 0, 0, 0, 0, 0, 0, 0, 0, 0, 0, 0, 0, 0, 0, 0, 0, 0, 0, 0, 0, 0, 0, 0, 0, 0, 0, 0], "sum_hessian": [353.0, 254.0, 99.0, 150.0, 104.0, 42.0, 57.0, 60.0, 90.0, 79.0, 25.0, 14.0, 28.0, 8.0, 49.0, 28.0, 32.0, 33.0, 57.0, 77.0, 2.0, 2.0, 23.0, 4.0, 10.0, 3.0, 25.0, 3.0, 5.0, 16.0, 33.0, 24.0, 4.0, 4.0, 28.0, 27.0, 6.0, 11.0, 46.0, 61.0, 16.0, 1.0, 1.0, 7.0, 16.0, 5.0, 5.0, 1.0, 2.0, 6.0, 19.0, 1.0, 2.0, 2.0, 3.0, 4.0, 12.0, 28.0, 5.0, 6.0, 18.0, 1.0, 3.0, 3.0, 1.0, 22.0, 6.0, 12.0, 15.0, 3.0, 3.0, 9.0, 2.0, 5.0, 41.0, 15.0, 46.0, 4.0, 12.0, 6.0, 1.0, 10.0, 6.0, 1.0, 4.0, 2.0, 3.0, 2.0, 4.0, 4.0, 15.0, 1.0, 1.0, 1.0, 3.0, 6.0, 6.0, 17.0, 11.0, 2.0, 3.0], "tree_param": {"num_deleted": "0", "num_feature": "10", "num_nodes": "101", "size_leaf_vector": "1"}}]}, "name": "gbtree"}, "learner_model_param": {"base_score": "1.5373654E2", "boost_from_average": "1", "num_class": "0", "num_feature": "10", "num_target": "1"}, "objective": {"name": "reg:squarederror", "reg_loss_param": {"scale_pos_weight": "1"}}}, "version": [2, 0, 3]}